{"learner":{"attributes":{"best_iteration":"66","best_score":"11.821390193918267","scikit_learn":"{\"_estimator_type\": \"regressor\"}"},"feature_names":["Harga_Per_Kg","Is_Holiday_Season","DayOfWeek","Nama_Season_Lebaran","Nama_Season_Nataru","Nama_Season_Normal"],"feature_types":["int","int","int","i","i","i"],"gradient_booster":{"model":{"cats":{"enc":[],"feature_segments":[],"sorted_idx":[]},"gbtree_model_param":{"num_parallel_tree":"1","num_trees":"117"},"iteration_indptr":[0,1,2,3,4,5,6,7,8,9,10,11,12,13,14,15,16,17,18,19,20,21,22,23,24,25,26,27,28,29,30,31,32,33,34,35,36,37,38,39,40,41,42,43,44,45,46,47,48,49,50,51,52,53,54,55,56,57,58,59,60,61,62,63,64,65,66,67,68,69,70,71,72,73,74,75,76,77,78,79,80,81,82,83,84,85,86,87,88,89,90,91,92,93,94,95,96,97,98,99,100,101,102,103,104,105,106,107,108,109,110,111,112,113,114,115,116,117],"tree_info":[0,0,0,0,0,0,0,0,0,0,0,0,0,0,0,0,0,0,0,0,0,0,0,0,0,0,0,0,0,0,0,0,0,0,0,0,0,0,0,0,0,0,0,0,0,0,0,0,0,0,0,0,0,0,0,0,0,0,0,0,0,0,0,0,0,0,0,0,0,0,0,0,0,0,0,0,0,0,0,0,0,0,0,0,0,0,0,0,0,0,0,0,0,0,0,0,0,0,0,0,0,0,0,0,0,0,0,0,0,0,0,0,0,0,0,0,0],"trees":[{"base_weights":[9.419006E-8,-4.440725E0,4.1419853E1,-3.800095E0,-8.074345E0,7.321555E-1,2.1077006E0,-5.7088647E0,-3.2830722E0,-6.320419E0,-1.2366986E1,-8.296634E0,-4.9672904E0,1.1309776E1,-3.4004505E0,-7.348368E0,3.4705536E0,-7.872287E-1,-9.966313E0,-6.562669E0,-7.6784456E-1,-4.1597834E0,-4.6069708E-1,6.9911665E-1,1.4911662E-1,-3.571592E0,3.4187293E-1,-7.7650166E-1,-7.742933E0,3.4867492E-1,-1.1784452E-1,7.411661E-2,-5.444977E-1,-3.977847E-1,-8.1413426E-2,-2.3449492E-1,4.134276E-2,-1.7033717E-1,-4.8904592E-1,1.6657566E-1,-2.5980565E-1,-1.3451119E-1,1.24116614E-1,-4.2457342E-1,-2.659263E-1],"categories":[],"categories_nodes":[],"categories_segments":[],"categories_sizes":[],"default_left":[0,0,0,0,0,0,0,0,0,0,0,0,0,0,0,0,0,0,0,0,0,0,0,0,0,0,0,0,0,0,0,0,0,0,0,0,0,0,0,0,0,0,0,0,0],"id":0,"left_children":[1,3,5,7,9,-1,-1,11,13,15,17,19,21,23,25,27,29,-1,31,33,-1,35,-1,-1,-1,37,39,41,43,-1,-1,-1,-1,-1,-1,-1,-1,-1,-1,-1,-1,-1,-1,-1,-1],"loss_changes":[1.044746E5,1.1634814E3,4.639453E2,4.1350928E2,4.940376E2,0E0,0E0,1.3533838E2,6.328279E2,5.891221E2,1.3362305E1,1.3182019E2,2.1543286E2,2.5066711E1,2.2218262E2,1.2623193E2,1.3891507E2,0E0,1.7475928E2,1.0389972E2,0E0,1.730614E2,0E0,0E0,0E0,3.044673E2,2.8221628E2,3.1624039E1,4.194629E1,0E0,0E0,0E0,0E0,0E0,0E0,0E0,0E0,0E0,0E0,0E0,0E0,0E0,0E0,0E0,0E0],"parents":[2147483647,0,0,1,1,2,2,3,3,4,4,7,7,8,8,9,9,10,10,11,11,12,12,13,13,14,14,15,15,16,16,18,18,19,19,21,21,25,25,26,26,27,27,28,28],"right_children":[2,4,6,8,10,-1,-1,12,14,16,18,20,22,24,26,28,30,-1,32,34,-1,36,-1,-1,-1,38,40,42,44,-1,-1,-1,-1,-1,-1,-1,-1,-1,-1,-1,-1,-1,-1,-1,-1],"split_conditions":[6.2573E4,6E0,7.2887E4,3.2705E4,3.7333E4,7.321555E-1,2.1077006E0,2.8522E4,3.2781E4,3.6948E4,3.8166E4,2.8317E4,3.2474E4,3E0,4.2972E4,2.8708E4,3.728E4,-7.872287E-1,3.8443E4,2.7827E4,-7.6784456E-1,3.211E4,-4.6069708E-1,6.9911665E-1,1.4911662E-1,4.2289E4,4.6704E4,2.8105E4,3.5504E4,3.4867492E-1,-1.1784452E-1,7.411661E-2,-5.444977E-1,-3.977847E-1,-8.1413426E-2,-2.3449492E-1,4.134276E-2,-1.7033717E-1,-4.8904592E-1,1.6657566E-1,-2.5980565E-1,-1.3451119E-1,1.24116614E-1,-4.2457342E-1,-2.659263E-1],"split_indices":[0,2,0,0,0,0,0,0,0,0,0,0,0,2,0,0,0,0,0,0,0,0,0,0,0,0,0,0,0,0,0,0,0,0,0,0,0,0,0,0,0,0,0,0,0],"split_type":[0,0,0,0,0,0,0,0,0,0,0,0,0,0,0,0,0,0,0,0,0,0,0,0,0,0,0,0,0,0,0,0,0,0,0,0,0,0,0,0,0,0,0,0,0],"sum_hessian":[5.66E2,5.12E2,5.4E1,4.37E2,7.5E1,2E0,5.2E1,9.1E1,3.46E2,5.5E1,2E1,1.8E1,7.3E1,2E0,3.44E2,5E1,5E0,6E0,1.4E1,1.6E1,2E0,6.3E1,1E1,1E0,1E0,3.29E2,1.5E1,3E0,4.7E1,3E0,2E0,1E0,1.3E1,1.2E1,4E0,5.7E1,6E0,3.22E2,7E0,1E1,5E0,2E0,1E0,3.4E1,1.3E1],"tree_param":{"num_deleted":"0","num_feature":"6","num_nodes":"45","size_leaf_vector":"1"}},{"base_weights":[-1.2222236E-3,-4.2255754E0,3.9400494E1,-3.6142118E0,-7.6933603E0,7.077503E-1,2.004304E0,-4.542619E0,-2.6211934E0,-6.0127926E0,-1.1808523E1,-4.1515613E0,-9.7406645E0,5.5644464E0,-2.9660943E0,-6.9946938E0,3.3354976E0,-7.534904E-1,-9.499355E0,-4.457322E0,1.2904186E0,-8.699374E-1,-6.376248E0,7.3783344E-1,8.3000183E-1,-1.0969771E0,-3.5117013E0,-7.402754E-1,-7.3701725E0,3.3559963E-1,-1.139164E-1,7.226372E-2,-5.1921743E-1,-3.9737177E-1,-2.0342396E-1,3.675626E-1,-7.7333234E-2,6.756258E-2,-4.5511103E-1,1.254001E-1,-1.121666E-1,1.9965635E-1,-1.0317063E-1,-4.229791E-1,-1.5433972E-1,-1.3002752E-1,1.2101374E-1,-7.152691E-1,-3.4591225E-1],"categories":[],"categories_nodes":[],"categories_segments":[],"categories_sizes":[],"default_left":[0,0,0,0,0,0,0,0,0,0,0,0,0,0,0,0,0,0,0,0,0,0,0,0,0,0,0,0,0,0,0,0,0,0,0,0,0,0,0,0,0,0,0,0,0,0,0,0,0],"id":1,"left_children":[1,3,5,7,9,-1,-1,11,13,15,17,19,21,23,25,27,29,-1,31,33,35,-1,37,-1,39,41,43,45,47,-1,-1,-1,-1,-1,-1,-1,-1,-1,-1,-1,-1,-1,-1,-1,-1,-1,-1,-1,-1],"loss_changes":[9.4541805E4,1.0597949E3,3.8452344E2,3.91896E2,4.5459912E2,0E0,0E0,4.1692725E2,6.2067664E2,5.373602E2,1.4994385E1,3.5684424E2,2.755359E2,3.7943253E2,2.062273E2,1.143125E2,1.2902243E2,0E0,1.60297E2,2.3908789E2,2.1771098E2,0E0,2.6507883E2,0E0,4.1725655E1,2.4436382E2,3.08167E2,2.9812014E1,5.147412E1,0E0,0E0,0E0,0E0,0E0,0E0,0E0,0E0,0E0,0E0,0E0,0E0,0E0,0E0,0E0,0E0,0E0,0E0,0E0,0E0],"parents":[2147483647,0,0,1,1,2,2,3,3,4,4,7,7,8,8,9,9,10,10,11,11,12,12,13,13,14,14,15,15,16,16,18,18,19,19,20,20,22,22,24,24,25,25,26,26,27,27,28,28],"right_children":[2,4,6,8,10,-1,-1,12,14,16,18,20,22,24,26,28,30,-1,32,34,36,-1,38,-1,40,42,44,46,48,-1,-1,-1,-1,-1,-1,-1,-1,-1,-1,-1,-1,-1,-1,-1,-1,-1,-1,-1,-1],"split_conditions":[6.2573E4,6E0,7.2887E4,3.5702E4,3.7333E4,7.077503E-1,2.004304E0,3.5361E4,3.598E4,3.6948E4,3.8166E4,3.5132E4,3.5433E4,1E0,3.7205E4,2.8708E4,3.728E4,-7.534904E-1,3.8443E4,2.8522E4,3.5176E4,-8.699374E-1,2E0,7.3783344E-1,3.5899E4,1E0,3.745E4,2.8105E4,2.9765E4,3.3559963E-1,-1.139164E-1,7.226372E-2,-5.1921743E-1,-3.9737177E-1,-2.0342396E-1,3.675626E-1,-7.7333234E-2,6.756258E-2,-4.5511103E-1,1.254001E-1,-1.121666E-1,1.9965635E-1,-1.0317063E-1,-4.229791E-1,-1.5433972E-1,-1.3002752E-1,1.2101374E-1,-7.152691E-1,-3.4591225E-1],"split_indices":[0,2,0,0,0,0,0,0,0,0,0,0,0,2,0,0,0,0,0,0,0,0,2,0,0,2,0,0,0,0,0,0,0,0,0,0,0,0,0,0,0,0,0,0,0,0,0,0,0],"split_type":[0,0,0,0,0,0,0,0,0,0,0,0,0,0,0,0,0,0,0,0,0,0,0,0,0,0,0,0,0,0,0,0,0,0,0,0,0,0,0,0,0,0,0,0,0,0,0,0,0],"sum_hessian":[5.66E2,5.12E2,5.4E1,4.37E2,7.5E1,2E0,5.2E1,2.24E2,2.13E2,5.5E1,2E1,2.1E2,1.4E1,8E0,2.05E2,5E1,5E0,6E0,1.4E1,1.99E2,1.1E1,3E0,1.1E1,2E0,6E0,4.7E1,1.58E2,3E0,4.7E1,3E0,2E0,1E0,1.3E1,1.8E1,1.81E2,3E0,8E0,3E0,8E0,4E0,2E0,7E0,4E1,1.1E1,1.47E2,2E0,1E0,1E0,4.6E1],"tree_param":{"num_deleted":"0","num_feature":"6","num_nodes":"49","size_leaf_vector":"1"}},{"base_weights":[-2.2809266E-3,-4.020821E0,3.747978E1,-3.436465E0,-7.3356514E0,6.8415856E-1,1.9059795E0,-4.3224587E0,-2.4888716E0,-5.7273045E0,-1.127526E1,-3.945456E0,-9.337462E0,5.3696756E0,-2.8201241E0,-6.6659427E0,3.2056713E0,-7.211979E-1,-9.054184E0,-4.237461E0,1.2500826E0,-8.373148E-1,-6.0897303E0,7.132389E-1,7.903922E-1,-1.0401169E0,-3.3397481E0,-4.1755896E0,-7.7883077E0,3.230147E-1,-1.1011912E-1,7.045708E-2,-4.9511084E-1,-1.9474827E-1,-3.9663634E-1,3.5377905E-1,-7.389628E-2,6.5029E-2,-4.348838E-1,1.2038406E-1,-1.0842768E-1,1.9092134E-1,-9.813783E-2,-4.035926E-1,-1.4667492E-1,-2.6759657E-1,1.7450498E-1,-4.7213575E-1,-2.3751949E-1],"categories":[],"categories_nodes":[],"categories_segments":[],"categories_sizes":[],"default_left":[0,0,0,0,0,0,0,0,0,0,0,0,0,0,0,0,0,0,0,0,0,0,0,0,0,0,0,0,0,0,0,0,0,0,0,0,0,0,0,0,0,0,0,0,0,0,0,0,0],"id":2,"left_children":[1,3,5,7,9,-1,-1,11,13,15,17,19,21,23,25,27,29,-1,31,33,35,-1,37,-1,39,41,43,45,47,-1,-1,-1,-1,-1,-1,-1,-1,-1,-1,-1,-1,-1,-1,-1,-1,-1,-1,-1,-1],"loss_changes":[8.555404E4,9.6849316E2,3.1579688E2,3.569702E2,4.1697852E2,0E0,0E0,3.8855957E2,5.7222034E2,4.9091943E2,1.6266357E1,3.254104E2,2.5894824E2,3.5532404E2,1.8706287E2,1.10028564E2,1.1983508E2,0E0,1.4705237E2,2.2222461E2,2.0116125E2,0E0,2.4259433E2,0E0,3.8719482E1,2.2266354E2,2.8198547E2,1.8099332E2,1.2602612E2,0E0,0E0,0E0,0E0,0E0,0E0,0E0,0E0,0E0,0E0,0E0,0E0,0E0,0E0,0E0,0E0,0E0,0E0,0E0,0E0],"parents":[2147483647,0,0,1,1,2,2,3,3,4,4,7,7,8,8,9,9,10,10,11,11,12,12,13,13,14,14,15,15,16,16,18,18,19,19,20,20,22,22,24,24,25,25,26,26,27,27,28,28],"right_children":[2,4,6,8,10,-1,-1,12,14,16,18,20,22,24,26,28,30,-1,32,34,36,-1,38,-1,40,42,44,46,48,-1,-1,-1,-1,-1,-1,-1,-1,-1,-1,-1,-1,-1,-1,-1,-1,-1,-1,-1,-1],"split_conditions":[6.2573E4,6E0,7.2887E4,3.5702E4,3.7333E4,6.8415856E-1,1.9059795E0,3.5361E4,3.598E4,3.6948E4,3.8166E4,3.5132E4,3.5433E4,1E0,3.7205E4,3.325E4,3.728E4,-7.211979E-1,3.8443E4,3.4741E4,3.5176E4,-8.373148E-1,2E0,7.132389E-1,3.5899E4,1E0,3.745E4,3.2893E4,3.5504E4,3.230147E-1,-1.1011912E-1,7.045708E-2,-4.9511084E-1,-1.9474827E-1,-3.9663634E-1,3.5377905E-1,-7.389628E-2,6.5029E-2,-4.348838E-1,1.2038406E-1,-1.0842768E-1,1.9092134E-1,-9.813783E-2,-4.035926E-1,-1.4667492E-1,-2.6759657E-1,1.7450498E-1,-4.7213575E-1,-2.3751949E-1],"split_indices":[0,2,0,0,0,0,0,0,0,0,0,0,0,2,0,0,0,0,0,0,0,0,2,0,0,2,0,0,0,0,0,0,0,0,0,0,0,0,0,0,0,0,0,0,0,0,0,0,0],"split_type":[0,0,0,0,0,0,0,0,0,0,0,0,0,0,0,0,0,0,0,0,0,0,0,0,0,0,0,0,0,0,0,0,0,0,0,0,0,0,0,0,0,0,0,0,0,0,0,0,0],"sum_hessian":[5.66E2,5.12E2,5.4E1,4.37E2,7.5E1,2E0,5.2E1,2.24E2,2.13E2,5.5E1,2E1,2.1E2,1.4E1,8E0,2.05E2,5E1,5E0,6E0,1.4E1,1.99E2,1.1E1,3E0,1.1E1,2E0,6E0,4.7E1,1.58E2,1.7E1,3.3E1,3E0,2E0,1E0,1.3E1,1.84E2,1.5E1,3E0,8E0,3E0,8E0,4E0,2E0,7E0,4E1,1.1E1,1.47E2,1.5E1,2E0,2E1,1.3E1],"tree_param":{"num_deleted":"0","num_feature":"6","num_nodes":"49","size_leaf_vector":"1"}},{"base_weights":[-2.8662842E-3,-3.825602E0,3.5652885E1,-3.267498E0,-6.991707E0,6.613533E-1,1.8124789E0,-5.012295E0,-2.7954843E0,-5.451472E0,-1.0766062E1,-4.492274E0,-4.2165762E-1,1.12924795E1,-2.9098854E0,-6.348385E0,3.0808709E0,-6.902894E-1,-8.6297865E0,-4.9512553E0,1.1327068E0,6.91593E-1,1.5534297E-1,-3.0712998E0,6.0115194E-1,-5.04817E-1,-6.703091E0,3.109017E-1,-1.06448494E-1,6.869564E-2,-4.7212362E-1,-3.6932394E-1,-2.0340715E-1,1.1285966E-1,-5.595029E-2,-1.4563653E-1,-4.544809E-1,1.7268646E-1,-2.3643826E-1,-1.1677336E-1,1.2467833E-1,-6.906974E-1,-3.1289414E-1],"categories":[],"categories_nodes":[],"categories_segments":[],"categories_sizes":[],"default_left":[0,0,0,0,0,0,0,0,0,0,0,0,0,0,0,0,0,0,0,0,0,0,0,0,0,0,0,0,0,0,0,0,0,0,0,0,0,0,0,0,0,0,0],"id":3,"left_children":[1,3,5,7,9,-1,-1,11,13,15,17,19,-1,21,23,25,27,-1,29,31,33,-1,-1,35,37,39,41,-1,-1,-1,-1,-1,-1,-1,-1,-1,-1,-1,-1,-1,-1,-1,-1],"loss_changes":[7.7419914E4,8.836328E2,2.565E2,3.4671143E2,3.831267E2,0E0,0E0,1.2577661E2,5.921128E2,4.481139E2,1.7226562E1,2.1731287E2,0E0,1.938556E1,1.9736865E2,1.02326416E2,1.1130272E2,0E0,1.3492126E2,1.3339441E2,2.0249952E1,0E0,0E0,2.8844995E2,2.5959586E2,2.7779604E1,6.551294E1,0E0,0E0,0E0,0E0,0E0,0E0,0E0,0E0,0E0,0E0,0E0,0E0,0E0,0E0,0E0,0E0],"parents":[2147483647,0,0,1,1,2,2,3,3,4,4,7,7,8,8,9,9,10,10,11,11,13,13,14,14,15,15,16,16,18,18,19,19,20,20,23,23,24,24,25,25,26,26],"right_children":[2,4,6,8,10,-1,-1,12,14,16,18,20,-1,22,24,26,28,-1,30,32,34,-1,-1,36,38,40,42,-1,-1,-1,-1,-1,-1,-1,-1,-1,-1,-1,-1,-1,-1,-1,-1],"split_conditions":[6.2573E4,6E0,7.2887E4,3.2705E4,3.7333E4,6.613533E-1,1.8124789E0,3.2474E4,3.2781E4,3.6948E4,3.8166E4,3.211E4,-4.2165762E-1,3E0,4.2972E4,2.8708E4,3.728E4,-6.902894E-1,3.8443E4,2.8522E4,3.2301E4,6.91593E-1,1.5534297E-1,4.2289E4,4.6704E4,2.8105E4,2.9765E4,3.109017E-1,-1.06448494E-1,6.869564E-2,-4.7212362E-1,-3.6932394E-1,-2.0340715E-1,1.1285966E-1,-5.595029E-2,-1.4563653E-1,-4.544809E-1,1.7268646E-1,-2.3643826E-1,-1.1677336E-1,1.2467833E-1,-6.906974E-1,-3.1289414E-1],"split_indices":[0,2,0,0,0,0,0,0,0,0,0,0,0,2,0,0,0,0,0,0,0,0,0,0,0,0,0,0,0,0,0,0,0,0,0,0,0,0,0,0,0,0,0],"split_type":[0,0,0,0,0,0,0,0,0,0,0,0,0,0,0,0,0,0,0,0,0,0,0,0,0,0,0,0,0,0,0,0,0,0,0,0,0,0,0,0,0,0,0],"sum_hessian":[5.66E2,5.12E2,5.4E1,4.37E2,7.5E1,2E0,5.2E1,9.1E1,3.46E2,5.5E1,2E1,8.1E1,1E1,2E0,3.44E2,5E1,5E0,6E0,1.4E1,7.5E1,6E0,1E0,1E0,3.29E2,1.5E1,3E0,4.7E1,3E0,2E0,1E0,1.3E1,1.8E1,5.7E1,4E0,2E0,3.22E2,7E0,1E1,5E0,2E0,1E0,1E0,4.6E1],"tree_param":{"num_deleted":"0","num_feature":"6","num_nodes":"43","size_leaf_vector":"1"}},{"base_weights":[-3.0144048E-3,-3.6394665E0,3.3915222E1,-3.1058447E0,-6.6669245E0,6.3930815E-1,1.7235647E0,-4.77187E0,-2.6551816E0,-5.1930285E0,-1.0279841E1,-2.3112073E0,-5.339177E0,1.1010167E1,-2.7663145E0,-6.0504904E0,2.9609032E0,-6.6070557E-1,-8.225193E0,-3.869776E0,1.7106546E0,-7.688842E0,-4.5584273E0,6.743032E-1,1.5145941E-1,-2.9195523E0,5.6710935E-1,-3.701583E0,-7.1160736E0,5.9848576E0,-1.02900185E-1,6.697827E-2,-4.5020366E-1,1.0197259E-2,-2.4996658E-1,6.450184E-1,-1.5536807E-1,-2.9366073E-1,-7.102015E-1,-1.5714365E-1,-3.5454184E-1,-1.3837719E-1,-4.345974E-1,1.6483703E-1,-2.2658662E-1,-2.4179864E-1,1.7911796E-1,-4.3475333E-1,-2.1196465E-1,9.116192E-2,3.3821592E-1],"categories":[],"categories_nodes":[],"categories_segments":[],"categories_sizes":[],"default_left":[0,0,0,0,0,0,0,0,0,0,0,0,0,0,0,0,0,0,0,0,0,0,0,0,0,0,0,0,0,0,0,0,0,0,0,0,0,0,0,0,0,0,0,0,0,0,0,0,0,0,0],"id":4,"left_children":[1,3,5,7,9,-1,-1,11,13,15,17,19,21,23,25,27,29,-1,31,33,35,37,39,-1,-1,41,43,45,47,49,-1,-1,-1,-1,-1,-1,-1,-1,-1,-1,-1,-1,-1,-1,-1,-1,-1,-1,-1,-1,-1],"loss_changes":[7.005836E4,8.080532E2,2.0546094E2,3.161875E2,3.5132153E2,0E0,0E0,1.1608765E2,5.574363E2,4.0944934E2,1.7917969E1,1.2571846E2,1.007041E2,1.8428406E1,1.7788379E2,1.0131006E2,1.0337854E2,0E0,1.2380853E2,6.5440506E1,3.6355942E2,1.1767218E2,1.8563062E2,0E0,0E0,2.6550415E2,2.3762726E2,1.6605518E2,1.1758118E2,6.4230347E-1,0E0,0E0,0E0,0E0,0E0,0E0,0E0,0E0,0E0,0E0,0E0,0E0,0E0,0E0,0E0,0E0,0E0,0E0,0E0,0E0,0E0],"parents":[2147483647,0,0,1,1,2,2,3,3,4,4,7,7,8,8,9,9,10,10,11,11,12,12,13,13,14,14,15,15,16,16,18,18,19,19,20,20,21,21,22,22,25,25,26,26,27,27,28,28,29,29],"right_children":[2,4,6,8,10,-1,-1,12,14,16,18,20,22,24,26,28,30,-1,32,34,36,38,40,-1,-1,42,44,46,48,50,-1,-1,-1,-1,-1,-1,-1,-1,-1,-1,-1,-1,-1,-1,-1,-1,-1,-1,-1,-1,-1],"split_conditions":[6.2573E4,6E0,7.2887E4,3.2705E4,3.7333E4,6.3930815E-1,1.7235647E0,1E0,3.2781E4,3.6948E4,3.8166E4,3.1821E4,2.8522E4,3E0,4.2972E4,3.325E4,3.728E4,-6.6070557E-1,3.8443E4,2.9364E4,3.2008E4,2.8317E4,3.1821E4,6.743032E-1,1.5145941E-1,4.2289E4,4.6704E4,3.2893E4,3.5504E4,3.7035E4,-1.02900185E-1,6.697827E-2,-4.5020366E-1,1.0197259E-2,-2.4996658E-1,6.450184E-1,-1.5536807E-1,-2.9366073E-1,-7.102015E-1,-1.5714365E-1,-3.5454184E-1,-1.3837719E-1,-4.345974E-1,1.6483703E-1,-2.2658662E-1,-2.4179864E-1,1.7911796E-1,-4.3475333E-1,-2.1196465E-1,9.116192E-2,3.3821592E-1],"split_indices":[0,2,0,0,0,0,0,2,0,0,0,0,0,2,0,0,0,0,0,0,0,0,0,0,0,0,0,0,0,0,0,0,0,0,0,0,0,0,0,0,0,0,0,0,0,0,0,0,0,0,0],"split_type":[0,0,0,0,0,0,0,0,0,0,0,0,0,0,0,0,0,0,0,0,0,0,0,0,0,0,0,0,0,0,0,0,0,0,0,0,0,0,0,0,0,0,0,0,0,0,0,0,0,0,0],"sum_hessian":[5.66E2,5.12E2,5.4E1,4.37E2,7.5E1,2E0,5.2E1,9.1E1,3.46E2,5.5E1,2E1,1.8E1,7.3E1,2E0,3.44E2,5E1,5E0,6E0,1.4E1,1.3E1,5E0,1.6E1,5.7E1,1E0,1E0,3.29E2,1.5E1,1.7E1,3.3E1,3E0,2E0,1E0,1.3E1,3E0,1E1,1E0,4E0,1.4E1,2E0,3.8E1,1.9E1,3.22E2,7E0,1E1,5E0,1.5E1,2E0,2E1,1.3E1,1E0,2E0],"tree_param":{"num_deleted":"0","num_feature":"6","num_nodes":"51","size_leaf_vector":"1"}},{"base_weights":[-3.1076865E-3,-3.462369E0,3.226242E1,-2.9530056E0,-6.352353E0,6.179979E-1,1.6390126E0,-3.7649198E0,-2.0855584E0,-4.940215E0,-9.815561E0,-3.3972378E0,-8.6859865E0,5.434228E0,-2.4039686E0,-5.7618756E0,2.8672714E0,-1.2647792E1,-7.839483E0,-3.6723607E0,1.4712486E0,-7.952649E-1,-5.555718E0,6.989315E-1,9.960229E-1,-7.0808023E-1,-2.9008157E0,-3.5199862E0,-6.7792916E0,5.792959E0,-9.947014E-2,-1.8556061E-1,-6.759344E-1,6.53038E-2,-4.293014E-1,-1.5971063E-1,-3.0880004E-1,-1.7719024E-1,2.2108756E-1,7.3240995E-2,-4.0293273E-1,1.2692933E-1,-9.53462E-2,1.949942E-1,-7.949625E-2,-3.7207732E-1,-1.2565242E-1,-2.3046437E-1,1.7314734E-1,-4.1405082E-1,-2.0212351E-1,8.8882826E-2,3.2694206E-1],"categories":[],"categories_nodes":[],"categories_segments":[],"categories_sizes":[],"default_left":[0,0,0,0,0,0,0,0,0,0,0,0,0,0,0,0,0,0,0,0,0,0,0,0,0,0,0,0,0,0,0,0,0,0,0,0,0,0,0,0,0,0,0,0,0,0,0,0,0,0,0,0,0],"id":5,"left_children":[1,3,5,7,9,-1,-1,11,13,15,17,19,21,23,25,27,29,31,33,35,37,-1,39,-1,41,43,45,47,49,51,-1,-1,-1,-1,-1,-1,-1,-1,-1,-1,-1,-1,-1,-1,-1,-1,-1,-1,-1,-1,-1,-1,-1],"loss_changes":[6.339735E4,7.364043E2,1.6167188E2,3.0062817E2,3.231892E2,0E0,0E0,3.77604E2,5.2546045E2,3.7576685E2,1.8378784E1,2.880232E2,2.5061035E2,3.273733E2,1.71521E2,9.24646E1,9.6779205E1,4.309082E0,1.1362756E2,2.1969482E2,1.9323296E2,0E0,2.2266806E2,0E0,3.618675E1,2.0124893E2,2.612578E2,1.5287897E2,1.06262695E2,3.5595703E-1,0E0,0E0,0E0,0E0,0E0,0E0,0E0,0E0,0E0,0E0,0E0,0E0,0E0,0E0,0E0,0E0,0E0,0E0,0E0,0E0,0E0,0E0,0E0],"parents":[2147483647,0,0,1,1,2,2,3,3,4,4,7,7,8,8,9,9,10,10,11,11,12,12,13,13,14,14,15,15,16,16,17,17,18,18,19,19,20,20,22,22,24,24,25,25,26,26,27,27,28,28,29,29],"right_children":[2,4,6,8,10,-1,-1,12,14,16,18,20,22,24,26,28,30,32,34,36,38,-1,40,-1,42,44,46,48,50,52,-1,-1,-1,-1,-1,-1,-1,-1,-1,-1,-1,-1,-1,-1,-1,-1,-1,-1,-1,-1,-1,-1,-1],"split_conditions":[6.2573E4,6E0,7.2887E4,3.5702E4,3.7333E4,6.179979E-1,1.6390126E0,3.5361E4,3.598E4,3.6948E4,3.8166E4,3.5132E4,3.5433E4,1E0,3.7205E4,3.325E4,3.728E4,3.745E4,3.8443E4,3.4391E4,2E0,-7.952649E-1,2E0,6.989315E-1,3.5899E4,1E0,3.745E4,3.2893E4,3.5504E4,3.7035E4,-9.947014E-2,-1.8556061E-1,-6.759344E-1,6.53038E-2,-4.293014E-1,-1.5971063E-1,-3.0880004E-1,-1.7719024E-1,2.2108756E-1,7.3240995E-2,-4.0293273E-1,1.2692933E-1,-9.53462E-2,1.949942E-1,-7.949625E-2,-3.7207732E-1,-1.2565242E-1,-2.3046437E-1,1.7314734E-1,-4.1405082E-1,-2.0212351E-1,8.8882826E-2,3.2694206E-1],"split_indices":[0,2,0,0,0,0,0,0,0,0,0,0,0,2,0,0,0,0,0,0,2,0,2,0,0,2,0,0,0,0,0,0,0,0,0,0,0,0,0,0,0,0,0,0,0,0,0,0,0,0,0,0,0],"split_type":[0,0,0,0,0,0,0,0,0,0,0,0,0,0,0,0,0,0,0,0,0,0,0,0,0,0,0,0,0,0,0,0,0,0,0,0,0,0,0,0,0,0,0,0,0,0,0,0,0,0,0,0,0],"sum_hessian":[5.66E2,5.12E2,5.4E1,4.37E2,7.5E1,2E0,5.2E1,2.24E2,2.13E2,5.5E1,2E1,2.1E2,1.4E1,8E0,2.05E2,5E1,5E0,6E0,1.4E1,1.99E2,1.1E1,3E0,1.1E1,2E0,6E0,4.7E1,1.58E2,1.7E1,3.3E1,3E0,2E0,1E0,5E0,1E0,1.3E1,1.69E2,3E1,4E0,7E0,3E0,8E0,4E0,2E0,7E0,4E1,1.1E1,1.47E2,1.5E1,2E0,2E1,1.3E1,1E0,2E0],"tree_param":{"num_deleted":"0","num_feature":"6","num_nodes":"53","size_leaf_vector":"1"}},{"base_weights":[-3.881949E-3,-3.2946777E0,3.0690338E1,-2.8080986E0,-6.0555596E0,1.3654927E0,3.7223404E1,-4.3890605E0,-2.380846E0,-4.699582E0,-9.38314E0,1.9822543E0,6.75721E-1,-3.9047415E0,-3.8002166E-1,1.0841386E1,-2.488921E0,-5.486988E0,2.776633E0,-1.21384735E1,-7.471774E0,-4.348229E0,1.468083E0,6.614383E-1,1.5166569E-1,-2.6336994E0,6.526933E-1,-1.2340355E-1,-5.819641E0,5.6072674E0,-9.615453E-2,-1.8092155E-1,-6.4777046E-1,6.367121E-2,-4.0936953E-1,-2.0128122E-1,-5.4282E-1,1.11540735E-1,-7.770767E-2,-1.2438189E-1,-4.1008654E-1,1.6305591E-1,-2.1191005E-1,-9.713885E-2,1.3336793E-1,-6.616234E-1,-2.6901898E-1,8.6660765E-2,3.1604397E-1],"categories":[],"categories_nodes":[],"categories_segments":[],"categories_sizes":[],"default_left":[0,0,0,0,0,0,0,0,0,0,0,0,0,0,0,0,0,0,0,0,0,0,0,0,0,0,0,0,0,0,0,0,0,0,0,0,0,0,0,0,0,0,0,0,0,0,0,0,0],"id":6,"left_children":[1,3,5,7,9,-1,11,13,15,17,19,-1,-1,21,-1,23,25,27,29,31,33,35,37,-1,-1,39,41,43,45,47,-1,-1,-1,-1,-1,-1,-1,-1,-1,-1,-1,-1,-1,-1,-1,-1,-1,-1,-1],"loss_changes":[5.7372883E4,6.721533E2,1.9810156E2,2.85406E2,2.988247E2,0E0,3.828711E2,1.134126E2,5.228435E2,3.4489722E2,1.9899414E1,0E0,0E0,2.0177148E2,0E0,1.5795471E1,1.5863818E2,9.027661E1,9.060248E1,1.8439941E0,1.0429901E2,1.1586316E2,1.9603113E1,0E0,0E0,2.4797827E2,2.1794177E2,2.5491837E1,8.5100464E1,1.0283661E-1,0E0,0E0,0E0,0E0,0E0,0E0,0E0,0E0,0E0,0E0,0E0,0E0,0E0,0E0,0E0,0E0,0E0,0E0,0E0],"parents":[2147483647,0,0,1,1,2,2,3,3,4,4,6,6,7,7,8,8,9,9,10,10,13,13,15,15,16,16,17,17,18,18,19,19,20,20,21,21,22,22,25,25,26,26,27,27,28,28,29,29],"right_children":[2,4,6,8,10,-1,12,14,16,18,20,-1,-1,22,-1,24,26,28,30,32,34,36,38,-1,-1,40,42,44,46,48,-1,-1,-1,-1,-1,-1,-1,-1,-1,-1,-1,-1,-1,-1,-1,-1,-1,-1,-1],"split_conditions":[6.2573E4,6E0,9.9769E4,3.2705E4,3.7333E4,1.3654927E0,5E0,3.2474E4,3.2781E4,3.6948E4,3.8166E4,1.9822543E0,6.75721E-1,3.211E4,-3.8002166E-1,3E0,4.2972E4,2.8708E4,3.728E4,3.745E4,3.8443E4,3.2008E4,3.2371E4,6.614383E-1,1.5166569E-1,4.2289E4,4.6704E4,2.8105E4,2.9765E4,3.7035E4,-9.615453E-2,-1.8092155E-1,-6.4777046E-1,6.367121E-2,-4.0936953E-1,-2.0128122E-1,-5.4282E-1,1.11540735E-1,-7.770767E-2,-1.2438189E-1,-4.1008654E-1,1.6305591E-1,-2.1191005E-1,-9.713885E-2,1.3336793E-1,-6.616234E-1,-2.6901898E-1,8.6660765E-2,3.1604397E-1],"split_indices":[0,2,0,0,0,0,2,0,0,0,0,0,0,0,0,2,0,0,0,0,0,0,0,0,0,0,0,0,0,0,0,0,0,0,0,0,0,0,0,0,0,0,0,0,0,0,0,0,0],"split_type":[0,0,0,0,0,0,0,0,0,0,0,0,0,0,0,0,0,0,0,0,0,0,0,0,0,0,0,0,0,0,0,0,0,0,0,0,0,0,0,0,0,0,0,0,0,0,0,0,0],"sum_hessian":[5.66E2,5.12E2,5.4E1,4.37E2,7.5E1,3.9E1,1.5E1,9.1E1,3.46E2,5.5E1,2E1,1.3E1,2E0,8.1E1,1E1,2E0,3.44E2,5E1,5E0,6E0,1.4E1,7.5E1,6E0,1E0,1E0,3.29E2,1.5E1,3E0,4.7E1,3E0,2E0,1E0,5E0,1E0,1.3E1,7.3E1,2E0,5E0,1E0,3.22E2,7E0,1E1,5E0,2E0,1E0,1E0,4.6E1,1E0,2E0],"tree_param":{"num_deleted":"0","num_feature":"6","num_nodes":"49","size_leaf_vector":"1"}},{"base_weights":[-1.2172046E-3,-3.135056E0,2.9228975E1,-2.669658E0,-5.775968E0,2.5978498E1,3.5528355E1,-6.2404013E0,-2.4838798E0,-4.4750996E0,-8.969905E0,2.7226562E1,1.620526E1,1.890221E0,6.53197E-1,-4.777439E0,-9.9663925E0,-3.1252317E0,-1.8578937E0,-5.230175E0,2.6888924E0,-5.8249676E-1,-7.1212316E0,5.5188155E-1,1.3946723E0,2.8046017E0,1.2777301E0,-6.0967264E0,-3.9180297E-1,-6.744951E-1,-3.120753E0,-2.709495E0,-8.210596E0,5.3542457E0,-2.1639683E0,-3.1127381E0,-6.1973424E0,2.71379E-1,-9.294942E-2,6.207943E-2,-3.9036304E-1,-7.29243E-1,3.351534E-1,-4.675606E-1,-1.446886E-1,4.2235136E-2,-1.3344565E-1,-4.2028237E-2,-1.9202824E-1,-1.4880496E-1,7.576802E-2,-7.607781E-1,-2.5956953E-1,6.797798E-1,5.286729E-2,-2.742405E-2,-1.3190264E-1,-2.0815583E-1,1.7634302E-1,-3.815236E-1,-1.8024905E-1,1.015339E-2,-6.484661E-2],"categories":[],"categories_nodes":[],"categories_segments":[],"categories_sizes":[],"default_left":[0,0,0,0,0,0,0,0,0,0,0,0,0,0,0,0,0,0,0,0,0,0,0,0,0,0,0,0,0,0,0,0,0,0,0,0,0,0,0,0,0,0,0,0,0,0,0,0,0,0,0,0,0,0,0,0,0,0,0,0,0,0,0],"id":7,"left_children":[1,3,5,7,9,11,13,15,17,19,21,23,25,-1,-1,27,29,31,33,35,37,-1,39,-1,-1,41,-1,43,45,-1,47,49,51,53,55,57,59,-1,-1,-1,-1,61,-1,-1,-1,-1,-1,-1,-1,-1,-1,-1,-1,-1,-1,-1,-1,-1,-1,-1,-1,-1,-1],"loss_changes":[5.203037E4,6.150957E2,2.0320312E2,2.7505396E2,2.756306E2,4.669336E1,3.242129E2,6.685687E1,1.6201099E2,3.1698718E2,2.1082642E1,5.9189453E1,8.0534094E2,0E0,0E0,9.597183E1,7.850467E1,4.111587E2,4.8398126E2,8.5153076E1,8.482115E1,0E0,9.575043E1,0E0,0E0,5.9994457E1,0E0,1.08451324E2,1.6332735E1,0E0,1.695673E0,2.1964551E2,2.3825153E2,3.0433505E2,1.5632373E2,1.402164E2,9.8808716E1,0E0,0E0,0E0,0E0,1.8511535E0,0E0,0E0,0E0,0E0,0E0,0E0,0E0,0E0,0E0,0E0,0E0,0E0,0E0,0E0,0E0,0E0,0E0,0E0,0E0,0E0,0E0],"parents":[2147483647,0,0,1,1,2,2,3,3,4,4,5,5,6,6,7,7,8,8,9,9,10,10,11,11,12,12,15,15,16,16,17,17,18,18,19,19,20,20,22,22,25,25,27,27,28,28,30,30,31,31,32,32,33,33,34,34,35,35,36,36,41,41],"right_children":[2,4,6,8,10,12,14,16,18,20,22,24,26,-1,-1,28,30,32,34,36,38,-1,40,-1,-1,42,-1,44,46,-1,48,50,52,54,56,58,60,-1,-1,-1,-1,62,-1,-1,-1,-1,-1,-1,-1,-1,-1,-1,-1,-1,-1,-1,-1,-1,-1,-1,-1,-1,-1],"split_conditions":[6.2573E4,6E0,9.9769E4,2.8708E4,3.7333E4,9.7448E4,5E0,2.8317E4,3.5702E4,3.6948E4,3.8166E4,7.2887E4,4E0,1.890221E0,6.53197E-1,2.7827E4,2.8522E4,3.5361E4,3.598E4,3.325E4,3.728E4,-5.8249676E-1,3.8443E4,5.5188155E-1,1.3946723E0,9.8936E4,1.2777301E0,3E0,2E0,-6.744951E-1,3E0,3.5132E4,3.5433E4,1E0,3.7205E4,3.2893E4,3.5504E4,2.71379E-1,-9.294942E-2,6.207943E-2,-3.9036304E-1,9.7858E4,3.351534E-1,-4.675606E-1,-1.446886E-1,4.2235136E-2,-1.3344565E-1,-4.2028237E-2,-1.9202824E-1,-1.4880496E-1,7.576802E-2,-7.607781E-1,-2.5956953E-1,6.797798E-1,5.286729E-2,-2.742405E-2,-1.3190264E-1,-2.0815583E-1,1.7634302E-1,-3.815236E-1,-1.8024905E-1,1.015339E-2,-6.484661E-2],"split_indices":[0,2,0,0,0,0,2,0,0,0,0,0,2,0,0,0,0,0,0,0,0,0,0,0,0,0,0,2,2,0,2,0,0,2,0,0,0,0,0,0,0,0,0,0,0,0,0,0,0,0,0,0,0,0,0,0,0,0,0,0,0,0,0],"split_type":[0,0,0,0,0,0,0,0,0,0,0,0,0,0,0,0,0,0,0,0,0,0,0,0,0,0,0,0,0,0,0,0,0,0,0,0,0,0,0,0,0,0,0,0,0,0,0,0,0,0,0,0,0,0,0,0,0,0,0,0,0,0,0],"sum_hessian":[5.66E2,5.12E2,5.4E1,4.37E2,7.5E1,3.9E1,1.5E1,2E1,4.17E2,5.5E1,2E1,3.3E1,6E0,1.3E1,2E0,1.6E1,4E0,2.04E2,2.13E2,5E1,5E0,6E0,1.4E1,2E0,3.1E1,3E0,3E0,1.2E1,4E0,2E0,2E0,1.9E2,1.4E1,8E0,2.05E2,1.7E1,3.3E1,3E0,2E0,1E0,1.3E1,2E0,1E0,5E0,7E0,3E0,1E0,1E0,1E0,1.79E2,1.1E1,3E0,1.1E1,2E0,6E0,4.7E1,1.58E2,1.5E1,2E0,2E1,1.3E1,1E0,1E0],"tree_param":{"num_deleted":"0","num_feature":"6","num_nodes":"63","size_leaf_vector":"1"}},{"base_weights":[3.4110593E-3,-2.9850452E0,2.7877495E1,-2.3033648E0,-4.6666207E0,2.4767195E1,3.3910904E1,-2.4678578E0,2.7685425E0,-4.307489E0,-8.037099E0,2.592249E1,1.5617594E1,1.8024607E0,6.314237E-1,-2.3469315E0,-4.0808114E-1,4.9306574E0,-2.680677E-1,-4.958779E0,-1.6415317E0,-4.1641775E-1,-1.1355076E-1,5.334856E-1,1.3271179E0,2.7344875E0,1.2298151E0,-4.548178E0,-2.015549E0,-1.6079435E0,7.9626207E0,-4.6117735E0,-8.719874E0,4.533989E-1,-2.8141084E0,-7.1101123E-1,3.267746E-1,-1.7887402E-1,-5.130734E-1,-3.7401028E-2,-1.2304609E-1,-2.2859812E-1,4.520251E-2,1.6960283E-1,5.271265E-1,-2.5567684E-1,9.3020655E-2,-7.379056E-1,-2.8744838E-1,-2.0220304E-2,-3.031651E-1,9.899521E-3,-6.3225366E-2],"categories":[],"categories_nodes":[],"categories_segments":[],"categories_sizes":[],"default_left":[0,0,0,0,0,0,0,0,0,0,0,0,0,0,0,0,0,0,0,0,0,0,0,0,0,0,0,0,0,0,0,0,0,0,0,0,0,0,0,0,0,0,0,0,0,0,0,0,0,0,0,0,0],"id":8,"left_children":[1,3,5,7,9,11,13,15,17,19,21,23,25,-1,-1,27,-1,29,-1,31,33,-1,-1,-1,-1,35,-1,37,39,41,43,45,47,-1,49,51,-1,-1,-1,-1,-1,-1,-1,-1,-1,-1,-1,-1,-1,-1,-1,-1,-1],"loss_changes":[4.7314582E4,5.773013E2,1.9223438E2,3.130183E2,1.4331592E2,1.7972656E1,2.7289062E2,2.2596045E2,2.373682E2,2.2626196E2,2.918457E0,3.826172E1,7.424574E2,0E0,0E0,2.4614209E2,0E0,2.1105142E2,0E0,1.0073877E2,3.7713452E2,0E0,0E0,0E0,0E0,5.7032227E1,0E0,2.1285437E2,1.7090308E2,3.391567E1,4.678067E1,3.3751123E2,5.8668457E1,0E0,2.0111725E2,1.7597467E0,0E0,0E0,0E0,0E0,0E0,0E0,0E0,0E0,0E0,0E0,0E0,0E0,0E0,0E0,0E0,0E0,0E0],"parents":[2147483647,0,0,1,1,2,2,3,3,4,4,5,5,6,6,7,7,8,8,9,9,10,10,11,11,12,12,15,15,17,17,19,19,20,20,25,25,27,27,28,28,29,29,30,30,31,31,32,32,34,34,35,35],"right_children":[2,4,6,8,10,12,14,16,18,20,22,24,26,-1,-1,28,-1,30,-1,32,34,-1,-1,-1,-1,36,-1,38,40,42,44,46,48,-1,50,52,-1,-1,-1,-1,-1,-1,-1,-1,-1,-1,-1,-1,-1,-1,-1,-1,-1],"split_conditions":[6.2573E4,5E0,9.9769E4,4.2972E4,4.1552E4,9.7448E4,5E0,4.2289E4,4.7063E4,3.7905E4,4.7063E4,7.2887E4,4E0,1.8024607E0,6.314237E-1,3.1178E4,-4.0808114E-1,2E0,-2.680677E-1,3.745E4,3.8083E4,-4.1641775E-1,-1.1355076E-1,5.334856E-1,1.3271179E0,9.8936E4,1.2298151E0,3.0966E4,3.3973E4,4.3874E4,4.5262E4,3.6948E4,3.7597E4,4.533989E-1,6E0,9.7858E4,3.267746E-1,-1.7887402E-1,-5.130734E-1,-3.7401028E-2,-1.2304609E-1,-2.2859812E-1,4.520251E-2,1.6960283E-1,5.271265E-1,-2.5567684E-1,9.3020655E-2,-7.379056E-1,-2.8744838E-1,-2.0220304E-2,-3.031651E-1,9.899521E-3,-6.3225366E-2],"split_indices":[0,2,0,0,0,0,2,0,0,0,0,0,2,0,0,0,0,2,0,0,0,0,0,0,0,0,0,0,0,0,0,0,0,0,2,0,0,0,0,0,0,0,0,0,0,0,0,0,0,0,0,0,0],"split_type":[0,0,0,0,0,0,0,0,0,0,0,0,0,0,0,0,0,0,0,0,0,0,0,0,0,0,0,0,0,0,0,0,0,0,0,0,0,0,0,0,0,0,0,0,0,0,0,0,0,0,0,0,0],"sum_hessian":[5.66E2,5.12E2,5.4E1,3.66E2,1.46E2,3.9E1,1.5E1,3.55E2,1.1E1,1.34E2,1.2E1,3.3E1,6E0,1.3E1,2E0,3.49E2,6E0,9E0,2E0,1.07E2,2.7E1,1.1E1,1E0,2E0,3.1E1,3E0,3E0,4.4E1,3.05E2,3E0,6E0,1E2,7E0,2E0,2.5E1,2E0,1E0,3.9E1,5E0,8E1,2.25E2,1E0,2E0,3E0,3E0,9.3E1,7E0,1E0,6E0,1.5E1,1E1,1E0,1E0],"tree_param":{"num_deleted":"0","num_feature":"6","num_nodes":"53","size_leaf_vector":"1"}},{"base_weights":[8.874762E-3,-2.8408673E0,2.6589033E1,-2.1909626E0,-4.4440928E0,1.8425108E1,1.4105631E0,-2.3480053E0,2.6505544E0,-4.0866838E0,-7.547569E0,2.5322147E1,3.7048256E0,-2.2320201E0,-7.8118396E0,4.735458E0,-2.5913212E-1,-4.7218404E0,-1.3946998E0,-3.8937494E-1,-1.10711955E-1,3.1177703E-1,1.3579007E0,9.459945E0,-4.828913E-1,-3.7666485E0,-1.7926098E0,-4.73018E-1,-4.2103596E0,-1.5733957E0,7.6640234E0,-4.360959E0,-8.2069845E0,1.5298691E0,-5.7876973E0,5.8592385E-1,6.710873E-2,-7.988525E-2,-2.2006403E-1,2.0177753E-1,-1.0609776E-1,-7.011986E-3,-2.7601597E-1,-2.2288314E-1,4.3695703E-2,1.6324277E-1,5.0735927E-1,-2.43029E-1,1.4856157E-1,-5.890797E-1,-2.7512914E-1,2.9942548E-1,-1.0950152E-1,-3.6321342E-1,2.244504E-1],"categories":[],"categories_nodes":[],"categories_segments":[],"categories_sizes":[],"default_left":[0,0,0,0,0,0,0,0,0,0,0,0,0,0,0,0,0,0,0,0,0,0,0,0,0,0,0,0,0,0,0,0,0,0,0,0,0,0,0,0,0,0,0,0,0,0,0,0,0,0,0,0,0,0,0],"id":9,"left_children":[1,3,5,7,9,11,-1,13,15,17,19,21,23,25,27,29,-1,31,33,-1,-1,-1,-1,35,-1,37,39,-1,41,43,45,47,49,51,53,-1,-1,-1,-1,-1,-1,-1,-1,-1,-1,-1,-1,-1,-1,-1,-1,-1,-1,-1,-1],"loss_changes":[4.3023855E4,5.2478076E2,2.0861328E2,2.8526294E2,1.3220898E2,1.124502E3,0E0,2.081698E2,2.2051971E2,2.2253174E2,6.7144775E-1,1.10979004E2,4.7588074E2,2.292638E2,1.7282715E0,1.9681744E2,0E0,1.000437E2,3.5574023E2,0E0,0E0,0E0,0E0,5.7608765E1,0E0,9.895715E1,5.3450006E2,0E0,2.0552612E1,3.2130394E1,4.33378E1,3.8077356E2,2.2175415E1,2.950718E2,1.9952646E2,0E0,0E0,0E0,0E0,0E0,0E0,0E0,0E0,0E0,0E0,0E0,0E0,0E0,0E0,0E0,0E0,0E0,0E0,0E0,0E0],"parents":[2147483647,0,0,1,1,2,2,3,3,4,4,5,5,7,7,8,8,9,9,10,10,11,11,12,12,13,13,14,14,15,15,17,17,18,18,23,23,25,25,26,26,28,28,29,29,30,30,31,31,32,32,33,33,34,34],"right_children":[2,4,6,8,10,12,-1,14,16,18,20,22,24,26,28,30,-1,32,34,-1,-1,-1,-1,36,-1,38,40,-1,42,44,46,48,50,52,54,-1,-1,-1,-1,-1,-1,-1,-1,-1,-1,-1,-1,-1,-1,-1,-1,-1,-1,-1,-1],"split_conditions":[6.2573E4,5E0,8.0641E4,4.2972E4,4.1255E4,5E0,1.4105631E0,4.2289E4,4.7063E4,3.7905E4,4.7063E4,7.2887E4,7.815E4,3.2705E4,1E0,2E0,-2.5913212E-1,3.7333E4,6E0,-3.8937494E-1,-1.10711955E-1,3.1177703E-1,1.3579007E0,7.5477E4,-4.828913E-1,1E0,3.307E4,-4.73018E-1,4.2575E4,4.3874E4,4.5262E4,3.6948E4,3.7597E4,3.9117E4,4.0611E4,5.8592385E-1,6.710873E-2,-7.988525E-2,-2.2006403E-1,2.0177753E-1,-1.0609776E-1,-7.011986E-3,-2.7601597E-1,-2.2288314E-1,4.3695703E-2,1.6324277E-1,5.0735927E-1,-2.43029E-1,1.4856157E-1,-5.890797E-1,-2.7512914E-1,2.9942548E-1,-1.0950152E-1,-3.6321342E-1,2.244504E-1],"split_indices":[0,2,0,0,0,2,0,0,0,0,0,0,0,0,2,2,0,0,2,0,0,0,0,0,0,2,0,0,0,0,0,0,0,0,0,0,0,0,0,0,0,0,0,0,0,0,0,0,0,0,0,0,0,0,0],"split_type":[0,0,0,0,0,0,0,0,0,0,0,0,0,0,0,0,0,0,0,0,0,0,0,0,0,0,0,0,0,0,0,0,0,0,0,0,0,0,0,0,0,0,0,0,0,0,0,0,0,0,0,0,0,0,0],"sum_hessian":[5.66E2,5.12E2,5.4E1,3.66E2,1.46E2,1.1E1,4.3E1,3.55E2,1.1E1,1.33E2,1.3E1,7E0,4E0,3.49E2,6E0,9E0,2E0,1.07E2,2.6E1,1.2E1,1E0,1E0,6E0,3E0,1E0,7.6E1,2.73E2,3E0,3E0,3E0,6E0,9.9E1,8E0,1.6E1,1E1,2E0,1E0,1.8E1,5.8E1,1.4E1,2.59E2,1E0,2E0,1E0,2E0,3E0,3E0,9.3E1,6E0,2E0,6E0,7E0,9E0,9E0,1E0],"tree_param":{"num_deleted":"0","num_feature":"6","num_nodes":"55","size_leaf_vector":"1"}},{"base_weights":[1.0397344E-2,-2.7029867E0,2.5318682E1,-2.0833983E0,-4.231463E0,2.2395157E1,3.1045074E1,-2.2333026E0,2.5373833E0,-3.9009683E0,-7.3380256E0,2.3497335E1,1.3842415E1,3.3065697E1,5.6335753E-1,-2.121003E0,-7.529254E0,4.5478263E0,-2.504944E-1,-4.4946237E0,-1.471834E0,-4.8223206E-1,-2.620618E-1,5.0074106E-1,1.2013515E0,1.6082039E0,1.1308011E0,1.8458761E0,1.8748907E1,-4.152124E0,-1.8153771E0,-4.552798E-1,-4.0705986E0,-1.5395241E0,7.3766227E0,-4.1620083E0,-8.132069E0,4.2830467E-1,-2.5734472E0,-1.6336111E0,2.8334123E-1,1.5062045E0,5.620448E-2,-1.6100284E-1,-4.8369423E-1,-9.341582E-2,3.582778E-1,-6.8367007E-3,-2.6681545E-1,-2.173111E-1,4.2239126E-2,1.5712118E-1,4.883333E-1,-2.3100674E-1,8.70616E-2,-7.047309E-1,-2.6333794E-1,-1.9654453E-2,-2.755464E-1,-2.561207E-2,-9.690876E-2],"categories":[],"categories_nodes":[],"categories_segments":[],"categories_sizes":[],"default_left":[0,0,0,0,0,0,0,0,0,0,0,0,0,0,0,0,0,0,0,0,0,0,0,0,0,0,0,0,0,0,0,0,0,0,0,0,0,0,0,0,0,0,0,0,0,0,0,0,0,0,0,0,0,0,0,0,0,0,0,0,0],"id":10,"left_children":[1,3,5,7,9,11,13,15,17,19,21,23,25,27,-1,29,31,33,-1,35,37,-1,-1,-1,-1,39,-1,-1,41,43,45,-1,47,49,51,53,55,-1,57,59,-1,-1,-1,-1,-1,-1,-1,-1,-1,-1,-1,-1,-1,-1,-1,-1,-1,-1,-1,-1,-1],"loss_changes":[3.9004945E4,4.7700854E2,2.2550781E2,2.5987866E2,1.22299805E2,5.180664E1,2.668623E2,1.9575598E2,2.0486441E2,1.8806421E2,1.2324463E1,2.1894531E0,7.149961E2,7.987695E1,0E0,2.0972925E2,1.098938E0,1.8355524E2,0E0,9.682007E1,3.3166602E2,0E0,0E0,0E0,0E0,6.1886578E1,0E0,0E0,9.685654E2,2.0044891E2,1.5887354E2,0E0,1.9186882E1,3.0439724E1,4.0148438E1,2.8119238E2,6.244348E1,0E0,1.6435747E2,3.1773567E-2,0E0,0E0,0E0,0E0,0E0,0E0,0E0,0E0,0E0,0E0,0E0,0E0,0E0,0E0,0E0,0E0,0E0,0E0,0E0,0E0,0E0],"parents":[2147483647,0,0,1,1,2,2,3,3,4,4,5,5,6,6,7,7,8,8,9,9,10,10,11,11,12,12,13,13,15,15,16,16,17,17,19,19,20,20,25,25,28,28,29,29,30,30,32,32,33,33,34,34,35,35,36,36,38,38,39,39],"right_children":[2,4,6,8,10,12,14,16,18,20,22,24,26,28,-1,30,32,34,-1,36,38,-1,-1,-1,-1,40,-1,-1,42,44,46,-1,48,50,52,54,56,-1,58,60,-1,-1,-1,-1,-1,-1,-1,-1,-1,-1,-1,-1,-1,-1,-1,-1,-1,-1,-1,-1,-1],"split_conditions":[6.2573E4,5E0,9.9769E4,4.2972E4,4.1552E4,9.7448E4,5E0,4.2289E4,4.7063E4,3.7905E4,4.2289E4,7.2887E4,4E0,1.08665E5,5.6335753E-1,3.1178E4,1E0,2E0,-2.504944E-1,3.745E4,3.8083E4,-4.8223206E-1,-2.620618E-1,5.0074106E-1,1.2013515E0,9.8936E4,1.1308011E0,1.8458761E0,2E0,3.0966E4,4.2039E4,-4.552798E-1,4.2575E4,4.3874E4,4.5262E4,3.6948E4,3.7597E4,4.2830467E-1,6E0,9.7858E4,2.8334123E-1,1.5062045E0,5.620448E-2,-1.6100284E-1,-4.8369423E-1,-9.341582E-2,3.582778E-1,-6.8367007E-3,-2.6681545E-1,-2.173111E-1,4.2239126E-2,1.5712118E-1,4.883333E-1,-2.3100674E-1,8.70616E-2,-7.047309E-1,-2.6333794E-1,-1.9654453E-2,-2.755464E-1,-2.561207E-2,-9.690876E-2],"split_indices":[0,2,0,0,0,0,2,0,0,0,0,0,2,0,0,0,2,2,0,0,0,0,0,0,0,0,0,0,2,0,0,0,0,0,0,0,0,0,2,0,0,0,0,0,0,0,0,0,0,0,0,0,0,0,0,0,0,0,0,0,0],"split_type":[0,0,0,0,0,0,0,0,0,0,0,0,0,0,0,0,0,0,0,0,0,0,0,0,0,0,0,0,0,0,0,0,0,0,0,0,0,0,0,0,0,0,0,0,0,0,0,0,0,0,0,0,0,0,0,0,0,0,0,0,0],"sum_hessian":[5.66E2,5.12E2,5.4E1,3.66E2,1.46E2,3.9E1,1.5E1,3.55E2,1.1E1,1.34E2,1.2E1,3.3E1,6E0,1.3E1,2E0,3.49E2,6E0,9E0,2E0,1.07E2,2.7E1,4E0,8E0,2E0,3.1E1,3E0,3E0,9E0,4E0,4.4E1,3.05E2,3E0,3E0,3E0,6E0,1E2,7E0,2E0,2.5E1,2E0,1E0,2E0,2E0,3.9E1,5E0,3.04E2,1E0,1E0,2E0,1E0,2E0,3E0,3E0,9.3E1,7E0,1E0,6E0,1.5E1,1E1,1E0,1E0],"tree_param":{"num_deleted":"0","num_feature":"6","num_nodes":"61","size_leaf_vector":"1"}},{"base_weights":[1.7554168E-2,-2.57293E0,2.4179388E1,-1.9816515E0,-4.0316124E0,2.135024E1,2.9741047E1,-2.1247532E0,2.4288385E0,-3.7000697E0,-6.9169784E0,1.3241149E1,2.2391811E1,3.1655859E1,5.445791E-1,-2.0160391E0,-7.256924E0,4.367473E0,-2.4214451E-1,-4.2801895E0,-1.2425519E0,-4.3135887E-1,-2.504146E-1,1.1415328E0,3.4135628E-1,1.248222E1,2.5459974E1,1.7628115E0,1.8123943E1,-3.430436E0,-1.6112049E0,-4.3820676E-1,-3.935482E0,-1.5063162E0,7.0999994E0,-3.934242E0,-7.648472E0,4.1402793E-1,-2.335623E0,-5.731892E-1,8.097664E0,1.6244904E1,-1.7123464E0,1.3697692E0,1.2239261E1,1.4559978E0,5.4330952E-2,-6.904856E-2,-2.016145E-1,1.9672054E-1,-9.624737E-2,-6.665802E-3,-2.579216E-1,-2.118783E-1,4.0831123E-2,1.5122919E-1,4.7002077E-1,-2.195793E-1,1.384633E-1,-5.591492E-1,-2.5205213E-1,-1.7528025E-3,-2.6302153E-1,7.0181084E-1,-9.448605E-2,9.263245E-1,3.133384E-1,3.724268E-1,-5.0085276E-1,1.1268109E0,2.0154838E-1],"categories":[],"categories_nodes":[],"categories_segments":[],"categories_sizes":[],"default_left":[0,0,0,0,0,0,0,0,0,0,0,0,0,0,0,0,0,0,0,0,0,0,0,0,0,0,0,0,0,0,0,0,0,0,0,0,0,0,0,0,0,0,0,0,0,0,0,0,0,0,0,0,0,0,0,0,0,0,0,0,0,0,0,0,0,0,0,0,0,0,0],"id":11,"left_children":[1,3,5,7,9,11,13,15,17,19,21,23,25,27,-1,29,31,33,-1,35,37,-1,-1,-1,39,41,43,-1,45,47,49,-1,51,53,55,57,59,-1,61,-1,63,65,67,-1,69,-1,-1,-1,-1,-1,-1,-1,-1,-1,-1,-1,-1,-1,-1,-1,-1,-1,-1,-1,-1,-1,-1,-1,-1,-1,-1],"loss_changes":[3.5551227E4,4.344668E2,2.3042969E2,2.3679224E2,1.1503027E2,4.135547E1,2.3270898E2,1.8399634E2,1.903179E2,1.8571936E2,2.4918823E0,8.58125E2,7.159492E2,4.309668E1,0E0,1.9488159E2,5.516968E-1,1.7119768E2,0E0,9.5755615E1,3.0039505E2,0E0,0E0,0E0,4.59087E2,5.619136E2,3.0438867E2,0E0,9.050708E2,8.9409424E1,4.8430475E2,0E0,1.7911732E1,2.8838596E1,3.7193756E1,3.187423E2,2.6570068E1,0E0,1.680335E2,0E0,2.0445638E2,6.602637E1,3.0284778E2,0E0,3.3175946E2,0E0,0E0,0E0,0E0,0E0,0E0,0E0,0E0,0E0,0E0,0E0,0E0,0E0,0E0,0E0,0E0,0E0,0E0,0E0,0E0,0E0,0E0,0E0,0E0,0E0,0E0],"parents":[2147483647,0,0,1,1,2,2,3,3,4,4,5,5,6,6,7,7,8,8,9,9,10,10,11,11,12,12,13,13,15,15,16,16,17,17,19,19,20,20,24,24,25,25,26,26,28,28,29,29,30,30,32,32,33,33,34,34,35,35,36,36,38,38,40,40,41,41,42,42,44,44],"right_children":[2,4,6,8,10,12,14,16,18,20,22,24,26,28,-1,30,32,34,-1,36,38,-1,-1,-1,40,42,44,-1,46,48,50,-1,52,54,56,58,60,-1,62,-1,64,66,68,-1,70,-1,-1,-1,-1,-1,-1,-1,-1,-1,-1,-1,-1,-1,-1,-1,-1,-1,-1,-1,-1,-1,-1,-1,-1,-1,-1],"split_conditions":[6.2573E4,5E0,9.9769E4,4.2972E4,4.1255E4,1E0,5E0,4.2289E4,4.7063E4,3.7905E4,4.2289E4,8.1375E4,8.0641E4,1.08665E5,5.445791E-1,3.2705E4,1E0,2E0,-2.4214451E-1,3.7333E4,3.8083E4,-4.3135887E-1,-2.504146E-1,1.1415328E0,9.377E4,6E0,1E0,1.7628115E0,2E0,1E0,3.307E4,-4.3820676E-1,4.2575E4,4.3874E4,4.5262E4,3.6948E4,3.7597E4,4.1402793E-1,6E0,-5.731892E-1,9.7448E4,5E0,7.5477E4,1.3697692E0,8.3834E4,1.4559978E0,5.4330952E-2,-6.904856E-2,-2.016145E-1,1.9672054E-1,-9.624737E-2,-6.665802E-3,-2.579216E-1,-2.118783E-1,4.0831123E-2,1.5122919E-1,4.7002077E-1,-2.195793E-1,1.384633E-1,-5.591492E-1,-2.5205213E-1,-1.7528025E-3,-2.6302153E-1,7.0181084E-1,-9.448605E-2,9.263245E-1,3.133384E-1,3.724268E-1,-5.0085276E-1,1.1268109E0,2.0154838E-1],"split_indices":[0,2,0,0,0,2,2,0,0,0,0,0,0,0,0,0,2,2,0,0,0,0,0,0,0,2,4,0,2,2,0,0,0,0,0,0,0,0,2,0,0,2,0,0,0,0,0,0,0,0,0,0,0,0,0,0,0,0,0,0,0,0,0,0,0,0,0,0,0,0,0],"split_type":[0,0,0,0,0,0,0,0,0,0,0,0,0,0,0,0,0,0,0,0,0,0,0,0,0,0,0,0,0,0,0,0,0,0,0,0,0,0,0,0,0,0,0,0,0,0,0,0,0,0,0,0,0,0,0,0,0,0,0,0,0,0,0,0,0,0,0,0,0,0,0],"sum_hessian":[5.66E2,5.12E2,5.4E1,3.66E2,1.46E2,3.9E1,1.5E1,3.55E2,1.1E1,1.33E2,1.3E1,6E0,3.3E1,1.3E1,2E0,3.49E2,6E0,9E0,2E0,1.07E2,2.6E1,5E0,8E0,3E0,3E0,9E0,2.4E1,9E0,4E0,7.6E1,2.73E2,3E0,3E0,3E0,6E0,9.9E1,8E0,2E0,2.4E1,1E0,2E0,7E0,2E0,2E1,4E0,2E0,2E0,1.8E1,5.8E1,1.4E1,2.59E2,1E0,2E0,1E0,2E0,3E0,3E0,9.3E1,6E0,2E0,6E0,1.4E1,1E1,1E0,1E0,5E0,2E0,1E0,1E0,1E0,3E0],"tree_param":{"num_deleted":"0","num_feature":"6","num_nodes":"71","size_leaf_vector":"1"}},{"base_weights":[2.8516477E-2,-2.4483569E0,2.313047E1,-2.074049E0,-4.573336E0,2.0407356E1,2.8492603E1,-5.2611303E0,-1.9089707E0,-3.452883E0,-7.343434E0,1.0696596E0,1.2703683E1,3.0306862E1,5.264265E-1,-3.8511045E0,-9.002993E0,-2.4743197E0,-1.3584777E0,-4.049628E0,2.1949284E0,-1.00081005E1,-5.6103606E0,1.4908466E0,1.03703E0,1.683485E0,1.7519812E1,-5.09269E0,1.4723817E-1,-6.234978E-1,-2.5350316E0,-2.0740235E0,-7.40647E0,5.5991545E0,-1.6558573E0,-2.062315E0,-4.982628E0,4.8737144E0,-1.05421446E-1,-1.3763237E-1,-5.379284E-1,9.065113E-2,-3.135052E-1,-8.142293E-2,2.7121907E-1,1.4074644E0,5.251999E-2,-4.1634747E-1,-1.0152044E-1,6.2390994E-2,-1.0637722E-1,-2.1938706E-2,-1.6818868E-1,-1.1657991E-1,9.812174E-2,-7.165437E-1,-2.2405647E-1,6.7108077E-1,7.23396E-2,-3.1845928E-3,-1.0630485E-1,-1.5390047E-1,2.0210801E-1,-3.181515E-1,-1.2780616E-1,6.603203E-2,2.8089294E-1],"categories":[],"categories_nodes":[],"categories_segments":[],"categories_sizes":[],"default_left":[0,0,0,0,0,0,0,0,0,0,0,0,0,0,0,0,0,0,0,0,0,0,0,0,0,0,0,0,0,0,0,0,0,0,0,0,0,0,0,0,0,0,0,0,0,0,0,0,0,0,0,0,0,0,0,0,0,0,0,0,0,0,0,0,0,0,0],"id":12,"left_children":[1,3,5,7,9,11,13,15,17,19,21,-1,23,25,-1,27,29,31,33,35,37,39,41,43,-1,-1,45,47,49,-1,51,53,55,57,59,61,63,65,-1,-1,-1,-1,-1,-1,-1,-1,-1,-1,-1,-1,-1,-1,-1,-1,-1,-1,-1,-1,-1,-1,-1,-1,-1,-1,-1,-1,-1],"loss_changes":[3.250072E4,3.9855273E2,2.2163477E2,2.2039636E2,2.1053015E2,3.2009766E1,2.0237695E2,7.6127075E1,1.2672876E2,1.9762561E2,4.08302E1,0E0,5.9989526E2,1.2124023E1,0E0,8.5142654E1,8.0509155E1,3.8937463E2,4.5204993E2,8.428656E1,7.944252E1,8.500366E0,8.483075E1,5.7912964E1,0E0,0E0,8.457383E2,1.1184766E2,1.5172713E1,0E0,3.7358322E0,2.031565E2,2.39625E2,2.72917E2,1.5409656E2,1.2404687E2,9.7620056E1,3.1568375E0,0E0,0E0,0E0,0E0,0E0,0E0,0E0,0E0,0E0,0E0,0E0,0E0,0E0,0E0,0E0,0E0,0E0,0E0,0E0,0E0,0E0,0E0,0E0,0E0,0E0,0E0,0E0,0E0,0E0],"parents":[2147483647,0,0,1,1,2,2,3,3,4,4,5,5,6,6,7,7,8,8,9,9,10,10,12,12,13,13,15,15,16,16,17,17,18,18,19,19,20,20,21,21,22,22,23,23,26,26,27,27,28,28,30,30,31,31,32,32,33,33,34,34,35,35,36,36,37,37],"right_children":[2,4,6,8,10,12,14,16,18,20,22,-1,24,26,-1,28,30,32,34,36,38,40,42,44,-1,-1,46,48,50,-1,52,54,56,58,60,62,64,66,-1,-1,-1,-1,-1,-1,-1,-1,-1,-1,-1,-1,-1,-1,-1,-1,-1,-1,-1,-1,-1,-1,-1,-1,-1,-1,-1,-1,-1],"split_conditions":[6.2573E4,6E0,9.9769E4,2.8708E4,3.7333E4,9.7448E4,5E0,2.8317E4,3.5702E4,3.6948E4,3.8166E4,1.0696596E0,4E0,1.08665E5,5.264265E-1,2.7827E4,2.8522E4,3.5361E4,3.598E4,3.325E4,3.728E4,3.745E4,3.8443E4,9.8936E4,1.03703E0,1.683485E0,2E0,3E0,2E0,-6.234978E-1,3E0,3.5132E4,3.5433E4,1E0,3.7205E4,3.2893E4,3.5504E4,3.7035E4,-1.05421446E-1,-1.3763237E-1,-5.379284E-1,9.065113E-2,-3.135052E-1,-8.142293E-2,2.7121907E-1,1.4074644E0,5.251999E-2,-4.1634747E-1,-1.0152044E-1,6.2390994E-2,-1.0637722E-1,-2.1938706E-2,-1.6818868E-1,-1.1657991E-1,9.812174E-2,-7.165437E-1,-2.2405647E-1,6.7108077E-1,7.23396E-2,-3.1845928E-3,-1.0630485E-1,-1.5390047E-1,2.0210801E-1,-3.181515E-1,-1.2780616E-1,6.603203E-2,2.8089294E-1],"split_indices":[0,2,0,0,0,0,2,0,0,0,0,0,2,0,0,0,0,0,0,0,0,0,0,0,0,0,2,2,2,0,2,0,0,2,0,0,0,0,0,0,0,0,0,0,0,0,0,0,0,0,0,0,0,0,0,0,0,0,0,0,0,0,0,0,0,0,0],"split_type":[0,0,0,0,0,0,0,0,0,0,0,0,0,0,0,0,0,0,0,0,0,0,0,0,0,0,0,0,0,0,0,0,0,0,0,0,0,0,0,0,0,0,0,0,0,0,0,0,0,0,0,0,0,0,0,0,0,0,0,0,0,0,0,0,0,0,0],"sum_hessian":[5.66E2,5.12E2,5.4E1,4.37E2,7.5E1,3.9E1,1.5E1,2E1,4.17E2,5.5E1,2E1,3.3E1,6E0,1.3E1,2E0,1.6E1,4E0,2.04E2,2.13E2,5E1,5E0,6E0,1.4E1,3E0,3E0,9E0,4E0,1.2E1,4E0,2E0,2E0,1.9E2,1.4E1,8E0,2.05E2,1.7E1,3.3E1,3E0,2E0,1E0,5E0,1E0,1.3E1,2E0,1E0,2E0,2E0,5E0,7E0,3E0,1E0,1E0,1E0,1.79E2,1.1E1,3E0,1.1E1,2E0,6E0,4.7E1,1.58E2,1.5E1,2E0,2E1,1.3E1,1E0,2E0],"tree_param":{"num_deleted":"0","num_feature":"6","num_nodes":"67","size_leaf_vector":"1"}},{"base_weights":[3.2754492E-2,-2.3313096E0,2.2082428E1,-1.7844296E0,-3.6807897E0,1.9444403E1,2.729734E1,-1.9212129E0,2.4221802E0,-3.3759081E0,-6.56373E0,1.1994635E1,2.0406284E1,1.4508027E0,5.088789E-1,-1.8160808E0,-6.9033594E0,4.2897935E0,-2.3052953E-1,-3.9236155E0,-1.1427547E0,-4.3729225E-1,-4.6221404E0,1.0586132E0,-1.8165207E-1,1.1006541E1,2.334993E1,-3.6468325E0,-1.5409178E0,-4.1778764E-1,-3.7251263E0,-1.3940344E0,6.924867E0,-3.6190174E0,-7.278713E0,4.0377045E-1,-2.162437E0,-9.928939E-2,-2.54585E-1,-5.8560085E-1,7.565809E0,1.4651668E1,-2.382642E0,1.2538393E0,1.142715E1,-1.374263E-1,-4.5138678E-1,-1.7398506E-2,-9.808302E-2,-3.8415908E-3,-2.4578069E-1,-2.039237E-1,4.301351E-2,1.4954448E-1,4.563814E-1,-2.012199E-1,7.982903E-2,-6.596856E-1,-2.2744487E-1,-1.2325597E-2,-2.3763259E-1,6.575241E-1,-9.0088464E-2,8.4315866E-1,2.672385E-1,3.3637467E-1,-5.150728E-1,1.0718993E0,1.7824726E-1],"categories":[],"categories_nodes":[],"categories_segments":[],"categories_sizes":[],"default_left":[0,0,0,0,0,0,0,0,0,0,0,0,0,0,0,0,0,0,0,0,0,0,0,0,0,0,0,0,0,0,0,0,0,0,0,0,0,0,0,0,0,0,0,0,0,0,0,0,0,0,0,0,0,0,0,0,0,0,0,0,0,0,0,0,0,0,0,0,0],"id":13,"left_children":[1,3,5,7,9,11,13,15,17,19,21,23,25,-1,-1,27,29,31,-1,33,35,-1,37,-1,39,41,43,45,47,-1,49,51,53,55,57,-1,59,-1,-1,-1,61,63,65,-1,67,-1,-1,-1,-1,-1,-1,-1,-1,-1,-1,-1,-1,-1,-1,-1,-1,-1,-1,-1,-1,-1,-1,-1,-1],"loss_changes":[2.9607398E4,3.720276E2,2.2585742E2,2.1582324E2,1.0704785E2,4.186621E1,1.7546973E2,1.7392993E2,1.7739246E2,1.606366E2,1.4653564E1,7.860919E2,6.837617E2,0E0,0E0,1.7069482E2,1.1860352E0,1.5942654E2,0E0,8.402954E1,2.8065128E2,0E0,1.0302887E0,0E0,4.459351E2,5.229623E2,2.2816602E2,1.9270355E2,1.5290613E2,0E0,1.6995316E1,2.7714771E1,3.335956E1,2.1996985E2,6.915802E1,0E0,1.2785749E2,0E0,0E0,0E0,1.8063872E2,7.45282E1,2.857274E2,0E0,3.171109E2,0E0,0E0,0E0,0E0,0E0,0E0,0E0,0E0,0E0,0E0,0E0,0E0,0E0,0E0,0E0,0E0,0E0,0E0,0E0,0E0,0E0,0E0,0E0,0E0],"parents":[2147483647,0,0,1,1,2,2,3,3,4,4,5,5,6,6,7,7,8,8,9,9,10,10,11,11,12,12,15,15,16,16,17,17,19,19,20,20,22,22,24,24,25,25,26,26,27,27,28,28,30,30,31,31,32,32,33,33,34,34,36,36,40,40,41,41,42,42,44,44],"right_children":[2,4,6,8,10,12,14,16,18,20,22,24,26,-1,-1,28,30,32,-1,34,36,-1,38,-1,40,42,44,46,48,-1,50,52,54,56,58,-1,60,-1,-1,-1,62,64,66,-1,68,-1,-1,-1,-1,-1,-1,-1,-1,-1,-1,-1,-1,-1,-1,-1,-1,-1,-1,-1,-1,-1,-1,-1,-1],"split_conditions":[6.2573E4,5E0,9.9769E4,4.2972E4,4.1552E4,1E0,5E0,4.2289E4,4.7063E4,3.7905E4,4.2289E4,8.1375E4,8.0641E4,1.4508027E0,5.088789E-1,3.1178E4,1E0,2E0,-2.3052953E-1,3.745E4,3.8083E4,-4.3729225E-1,4.3874E4,1.0586132E0,9.377E4,6E0,1E0,3.0966E4,3.3973E4,-4.1778764E-1,4.2575E4,4.3874E4,4.5262E4,3.6948E4,3.7597E4,4.0377045E-1,6E0,-9.928939E-2,-2.54585E-1,-5.8560085E-1,9.7448E4,5E0,7.5477E4,1.2538393E0,8.3834E4,-1.374263E-1,-4.5138678E-1,-1.7398506E-2,-9.808302E-2,-3.8415908E-3,-2.4578069E-1,-2.039237E-1,4.301351E-2,1.4954448E-1,4.563814E-1,-2.012199E-1,7.982903E-2,-6.596856E-1,-2.2744487E-1,-1.2325597E-2,-2.3763259E-1,6.575241E-1,-9.0088464E-2,8.4315866E-1,2.672385E-1,3.3637467E-1,-5.150728E-1,1.0718993E0,1.7824726E-1],"split_indices":[0,2,0,0,0,2,2,0,0,0,0,0,0,0,0,0,2,2,0,0,0,0,0,0,0,2,4,0,0,0,0,0,0,0,0,0,2,0,0,0,0,2,0,0,0,0,0,0,0,0,0,0,0,0,0,0,0,0,0,0,0,0,0,0,0,0,0,0,0],"split_type":[0,0,0,0,0,0,0,0,0,0,0,0,0,0,0,0,0,0,0,0,0,0,0,0,0,0,0,0,0,0,0,0,0,0,0,0,0,0,0,0,0,0,0,0,0,0,0,0,0,0,0,0,0,0,0,0,0,0,0,0,0,0,0,0,0,0,0,0,0],"sum_hessian":[5.66E2,5.12E2,5.4E1,3.66E2,1.46E2,3.9E1,1.5E1,3.55E2,1.1E1,1.34E2,1.2E1,6E0,3.3E1,1.3E1,2E0,3.49E2,6E0,9E0,2E0,1.07E2,2.7E1,4E0,8E0,3E0,3E0,9E0,2.4E1,4.4E1,3.05E2,3E0,3E0,3E0,6E0,1E2,7E0,2E0,2.5E1,2E0,6E0,1E0,2E0,7E0,2E0,2E1,4E0,3.9E1,5E0,8E1,2.25E2,1E0,2E0,1E0,2E0,3E0,3E0,9.3E1,7E0,1E0,6E0,1.5E1,1E1,1E0,1E0,5E0,2E0,1E0,1E0,1E0,3E0],"tree_param":{"num_deleted":"0","num_feature":"6","num_nodes":"69","size_leaf_vector":"1"}},{"base_weights":[3.752404E-2,-2.2202077E0,2.1095322E1,-1.5028548E0,-3.1687603E0,1.8584087E1,2.605495E1,-3.6885092E0,-1.0613917E0,-2.7971914E0,-5.42879E0,1.1543536E1,1.948702E1,2.7668875E1,4.9191615E-1,-4.51096E0,-4.3722776E-1,6.51981E-1,-1.1721698E0,-3.5159173E0,-1.7337328E0,-6.563861E0,-2.871498E0,1.018915E0,-1.7711067E-1,1.0549387E1,2.2282593E1,1.542442E0,1.5775174E1,-3.230908E0,-6.5659885E0,2.2387505E0,-3.0403347E0,9.3376434E-1,-1.5753989E0,-2.7863138E0,-5.850117E0,2.608677E0,-2.8779745E0,-4.3714385E0,-4.6530324E-1,1.3811156E-1,-4.4303527E0,-5.709608E-1,7.376663E0,1.4057886E1,-2.3230743E0,1.1941327E0,1.1105823E1,1.3121887E0,2.4091087E-3,-2.996529E-1,-3.876466E-4,-5.100786E-1,-1.7063561E-1,-2.2190666E-1,2.230877E-1,-3.338922E-1,2.2394037E-2,2.5170961E-2,4.429306E-1,-1.6447477E-1,-3.98617E-2,-2.681467E-1,-1.0469212E-1,-5.676165E-1,-1.9997397E-1,5.5690713E-2,4.6067157E-1,-4.098632E-1,-1.13904156E-1,-2.7779993E-1,2.4608193E-1,-9.597976E-2,-2.436742E-1,6.4108604E-1,-8.7836266E-2,8.080272E-1,2.583306E-1,3.2796535E-1,-5.0219595E-1,1.0451018E0,1.7156306E-1],"categories":[],"categories_nodes":[],"categories_segments":[],"categories_sizes":[],"default_left":[0,0,0,0,0,0,0,0,0,0,0,0,0,0,0,0,0,0,0,0,0,0,0,0,0,0,0,0,0,0,0,0,0,0,0,0,0,0,0,0,0,0,0,0,0,0,0,0,0,0,0,0,0,0,0,0,0,0,0,0,0,0,0,0,0,0,0,0,0,0,0,0,0,0,0,0,0,0,0,0,0,0,0],"id":14,"left_children":[1,3,5,7,9,11,13,15,17,19,21,23,25,27,-1,29,31,-1,33,35,37,39,41,-1,43,45,47,-1,49,51,53,55,57,59,61,63,65,67,69,71,-1,-1,73,-1,75,77,79,-1,81,-1,-1,-1,-1,-1,-1,-1,-1,-1,-1,-1,-1,-1,-1,-1,-1,-1,-1,-1,-1,-1,-1,-1,-1,-1,-1,-1,-1,-1,-1,-1,-1,-1,-1],"loss_changes":[2.7003637E4,3.443069E2,2.0080664E2,2.7976147E2,1.6956128E2,2.9335938E1,1.4654297E2,1.2905463E2,3.9955707E2,1.3989221E2,6.823303E1,7.284532E2,6.144502E2,4.285547E1,0E0,8.1377075E1,8.343098E1,0E0,2.0951868E2,1.7614331E2,4.0004022E2,7.9560486E1,1.08841446E2,0E0,4.2391702E2,4.8428772E2,1.8185156E2,0E0,8.219336E2,2.3142737E2,1.2568103E2,1.0885828E2,7.912137E1,1.3195718E2,2.7215057E2,1.4578357E2,2.193443E2,1.5758234E2,1.823587E2,1.7045128E2,0E0,0E0,6.5823364E-1,0E0,1.717197E2,6.606714E1,2.716196E2,0E0,3.0418787E2,0E0,0E0,0E0,0E0,0E0,0E0,0E0,0E0,0E0,0E0,0E0,0E0,0E0,0E0,0E0,0E0,0E0,0E0,0E0,0E0,0E0,0E0,0E0,0E0,0E0,0E0,0E0,0E0,0E0,0E0,0E0,0E0,0E0,0E0],"parents":[2147483647,0,0,1,1,2,2,3,3,4,4,5,5,6,6,7,7,8,8,9,9,10,10,11,11,12,12,13,13,15,15,16,16,18,18,19,19,20,20,21,21,22,22,24,24,25,25,26,26,28,28,29,29,30,30,31,31,32,32,33,33,34,34,35,35,36,36,37,37,38,38,39,39,42,42,44,44,45,45,46,46,48,48],"right_children":[2,4,6,8,10,12,14,16,18,20,22,24,26,28,-1,30,32,-1,34,36,38,40,42,-1,44,46,48,-1,50,52,54,56,58,60,62,64,66,68,70,72,-1,-1,74,-1,76,78,80,-1,82,-1,-1,-1,-1,-1,-1,-1,-1,-1,-1,-1,-1,-1,-1,-1,-1,-1,-1,-1,-1,-1,-1,-1,-1,-1,-1,-1,-1,-1,-1,-1,-1,-1,-1],"split_conditions":[6.2573E4,4E0,9.9769E4,3.1949E4,4.01E4,1E0,5E0,3E0,3.2008E4,3.5702E4,4.2289E4,8.1375E4,8.0641E4,1.08665E5,4.9191615E-1,3.0966E4,2.9233E4,6.51981E-1,3.3732E4,3.4391E4,3.6581E4,4.1255E4,5E0,1.018915E0,9.377E4,6E0,1E0,1.542442E0,2E0,2.9472E4,3.1543E4,2.4847E4,3.0159E4,3.3687E4,3.5702E4,3.0213E4,3.4661E4,3.6306E4,3.6736E4,4.1051E4,-4.6530324E-1,1.3811156E-1,4.3874E4,-5.709608E-1,9.7448E4,5E0,7.5477E4,1.1941327E0,8.3834E4,1.3121887E0,2.4091087E-3,-2.996529E-1,-3.876466E-4,-5.100786E-1,-1.7063561E-1,-2.2190666E-1,2.230877E-1,-3.338922E-1,2.2394037E-2,2.5170961E-2,4.429306E-1,-1.6447477E-1,-3.98617E-2,-2.681467E-1,-1.0469212E-1,-5.676165E-1,-1.9997397E-1,5.5690713E-2,4.6067157E-1,-4.098632E-1,-1.13904156E-1,-2.7779993E-1,2.4608193E-1,-9.597976E-2,-2.436742E-1,6.4108604E-1,-8.7836266E-2,8.080272E-1,2.583306E-1,3.2796535E-1,-5.0219595E-1,1.0451018E0,1.7156306E-1],"split_indices":[0,2,0,0,0,2,2,2,0,0,0,0,0,0,0,0,0,0,0,0,0,0,2,0,0,2,4,0,2,0,0,0,0,0,0,0,0,0,0,0,0,0,0,0,0,2,0,0,0,0,0,0,0,0,0,0,0,0,0,0,0,0,0,0,0,0,0,0,0,0,0,0,0,0,0,0,0,0,0,0,0,0,0],"split_type":[0,0,0,0,0,0,0,0,0,0,0,0,0,0,0,0,0,0,0,0,0,0,0,0,0,0,0,0,0,0,0,0,0,0,0,0,0,0,0,0,0,0,0,0,0,0,0,0,0,0,0,0,0,0,0,0,0,0,0,0,0,0,0,0,0,0,0,0,0,0,0,0,0,0,0,0,0,0,0,0,0,0,0],"sum_hessian":[5.66E2,5.12E2,5.4E1,2.93E2,2.19E2,3.9E1,1.5E1,4.8E1,2.45E2,1.9E2,2.9E1,6E0,3.3E1,1.3E1,2E0,3.8E1,1E1,1E0,2.44E2,1.12E2,7.8E1,1.9E1,1E1,3E0,3E0,9E0,2.4E1,9E0,4E0,2.5E1,1.3E1,5E0,5E0,3.9E1,2.05E2,8.7E1,2.5E1,1.6E1,6.2E1,1.2E1,7E0,2E0,8E0,1E0,2E0,7E0,2E0,2E1,4E0,2E0,2E0,1.3E1,1.2E1,5E0,8E0,1E0,4E0,2E0,3E0,3.8E1,1E0,6.3E1,1.42E2,1.7E1,7E1,5E0,2E1,1.4E1,2E0,5E0,5.7E1,1.1E1,1E0,2E0,6E0,1E0,1E0,5E0,2E0,1E0,1E0,1E0,3E0],"tree_param":{"num_deleted":"0","num_feature":"6","num_nodes":"83","size_leaf_vector":"1"}},{"base_weights":[4.5227334E-2,-2.1135278E0,2.0179703E1,-1.7775662E0,-4.0219183E0,1.7762487E1,2.4961514E1,-4.7195E0,-1.6255132E0,-2.9746025E0,-6.62324E0,1.110939E1,1.8609816E1,2.6489506E1,4.7551903E-1,-3.3405602E0,-8.463996E0,-2.1409767E0,-1.1241322E0,-3.5196218E0,2.1538277E0,-9.292312E0,-4.936124E0,1.9614115E1,-1.7268181E-1,1.011113E1,2.1264898E1,1.473032E0,1.5249334E1,-5.6918955E0,-1.1254361E0,-5.8760715E-1,-2.3545177E0,-1.7611022E0,-6.835314E0,5.514645E0,-1.408719E0,1.2273598E0,-3.8418782E0,4.7423153E0,-1.0077158E-1,-1.3333969E-1,-4.9760494E-1,9.7173214E-2,-5.566342E0,1.1112125E0,2.9459286E-1,-5.566868E-1,7.192248E0,1.3488285E1,-2.2649968E0,1.1372694E0,1.0793864E1,1.2684492E0,2.3287456E-3,-3.6020932E-1,-1.6718419E-1,7.176426E-2,-1.5358989E-1,-1.0463334E-2,-1.6612549E-1,-1.0060555E-1,1.0753929E-1,-6.7982733E-1,-2.00598E-1,6.5330964E-1,7.4523054E-2,3.8688262E-3,-9.242458E-2,-3.4543738E-2,1.7455159E-1,-6.005649E-1,-1.7062506E-1,6.5233044E-2,2.7266568E-1,-1.5820633E-1,-3.1054077E-1,6.2505895E-1,-8.564033E-2,7.743593E-1,2.4971955E-1,3.1976625E-1,-4.89641E-1,1.0189742E0,1.6512947E-1],"categories":[],"categories_nodes":[],"categories_segments":[],"categories_sizes":[],"default_left":[0,0,0,0,0,0,0,0,0,0,0,0,0,0,0,0,0,0,0,0,0,0,0,0,0,0,0,0,0,0,0,0,0,0,0,0,0,0,0,0,0,0,0,0,0,0,0,0,0,0,0,0,0,0,0,0,0,0,0,0,0,0,0,0,0,0,0,0,0,0,0,0,0,0,0,0,0,0,0,0,0,0,0,0,0],"id":15,"left_children":[1,3,5,7,9,11,13,15,17,19,21,23,25,27,-1,29,31,33,35,37,39,41,43,45,47,49,51,-1,53,55,57,-1,59,61,63,65,67,69,71,73,-1,-1,-1,-1,75,-1,-1,-1,77,79,81,-1,83,-1,-1,-1,-1,-1,-1,-1,-1,-1,-1,-1,-1,-1,-1,-1,-1,-1,-1,-1,-1,-1,-1,-1,-1,-1,-1,-1,-1,-1,-1,-1,-1],"loss_changes":[2.4687535E4,3.217588E2,1.9234766E2,1.8825891E2,1.8735327E2,1.8750977E1,1.2582129E2,8.015762E1,1.0562268E2,1.6410587E2,4.869574E1,6.750434E2,5.521885E2,1.829004E1,0E0,8.213864E1,7.277371E1,3.535304E2,4.120804E2,8.27323E1,7.431027E1,4.0598145E0,7.58526E1,1.2325562E1,4.0298615E2,4.4851202E2,1.4204492E2,0E0,7.680513E2,4.320923E0,5.42498E1,0E0,5.5344677E0,1.9187384E2,2.317915E2,2.5402472E2,1.347731E2,1.9780878E1,1.2738397E2,2.6619415E0,0E0,0E0,0E0,0E0,2.022461E0,0E0,0E0,0E0,1.6324104E2,5.847827E1,2.5820837E2,0E0,2.917375E2,0E0,0E0,0E0,0E0,0E0,0E0,0E0,0E0,0E0,0E0,0E0,0E0,0E0,0E0,0E0,0E0,0E0,0E0,0E0,0E0,0E0,0E0,0E0,0E0,0E0,0E0,0E0,0E0,0E0,0E0,0E0,0E0],"parents":[2147483647,0,0,1,1,2,2,3,3,4,4,5,5,6,6,7,7,8,8,9,9,10,10,11,11,12,12,13,13,15,15,16,16,17,17,18,18,19,19,20,20,21,21,22,22,23,23,24,24,25,25,26,26,28,28,29,29,30,30,32,32,33,33,34,34,35,35,36,36,37,37,38,38,39,39,44,44,48,48,49,49,50,50,52,52],"right_children":[2,4,6,8,10,12,14,16,18,20,22,24,26,28,-1,30,32,34,36,38,40,42,44,46,48,50,52,-1,54,56,58,-1,60,62,64,66,68,70,72,74,-1,-1,-1,-1,76,-1,-1,-1,78,80,82,-1,84,-1,-1,-1,-1,-1,-1,-1,-1,-1,-1,-1,-1,-1,-1,-1,-1,-1,-1,-1,-1,-1,-1,-1,-1,-1,-1,-1,-1,-1,-1,-1,-1],"split_conditions":[6.2573E4,6E0,9.9769E4,2.8708E4,3.7333E4,1E0,5E0,2.8317E4,3.5702E4,3.6948E4,3.8166E4,8.1375E4,8.0641E4,1.08665E5,4.7551903E-1,2.7007E4,2.8522E4,3.5361E4,3.598E4,2.8708E4,3.728E4,3.745E4,3.8443E4,8.0641E4,9.377E4,6E0,1E0,1.473032E0,2E0,3E0,2E0,-5.8760715E-1,3E0,3.5132E4,3.5433E4,1E0,3.7205E4,2.8105E4,2.9765E4,3.7035E4,-1.0077158E-1,-1.3333969E-1,-4.9760494E-1,9.7173214E-2,3.9487E4,1.1112125E0,2.9459286E-1,-5.566868E-1,9.7448E4,5E0,7.5477E4,1.1372694E0,8.3834E4,1.2684492E0,2.3287456E-3,-3.6020932E-1,-1.6718419E-1,7.176426E-2,-1.5358989E-1,-1.0463334E-2,-1.6612549E-1,-1.0060555E-1,1.0753929E-1,-6.7982733E-1,-2.00598E-1,6.5330964E-1,7.4523054E-2,3.8688262E-3,-9.242458E-2,-3.4543738E-2,1.7455159E-1,-6.005649E-1,-1.7062506E-1,6.5233044E-2,2.7266568E-1,-1.5820633E-1,-3.1054077E-1,6.2505895E-1,-8.564033E-2,7.743593E-1,2.4971955E-1,3.1976625E-1,-4.89641E-1,1.0189742E0,1.6512947E-1],"split_indices":[0,2,0,0,0,2,2,0,0,0,0,0,0,0,0,0,0,0,0,0,0,0,0,0,0,2,4,0,2,2,2,0,2,0,0,2,0,0,0,0,0,0,0,0,0,0,0,0,0,2,0,0,0,0,0,0,0,0,0,0,0,0,0,0,0,0,0,0,0,0,0,0,0,0,0,0,0,0,0,0,0,0,0,0,0],"split_type":[0,0,0,0,0,0,0,0,0,0,0,0,0,0,0,0,0,0,0,0,0,0,0,0,0,0,0,0,0,0,0,0,0,0,0,0,0,0,0,0,0,0,0,0,0,0,0,0,0,0,0,0,0,0,0,0,0,0,0,0,0,0,0,0,0,0,0,0,0,0,0,0,0,0,0,0,0,0,0,0,0,0,0,0,0],"sum_hessian":[5.66E2,5.12E2,5.4E1,4.37E2,7.5E1,3.9E1,1.5E1,2E1,4.17E2,5.5E1,2E1,6E0,3.3E1,1.3E1,2E0,1.6E1,4E0,2.04E2,2.13E2,5E1,5E0,6E0,1.4E1,3E0,3E0,9E0,2.4E1,9E0,4E0,7E0,9E0,2E0,2E0,1.9E2,1.4E1,8E0,2.05E2,3E0,4.7E1,3E0,2E0,1E0,5E0,1E0,1.3E1,2E0,1E0,1E0,2E0,7E0,2E0,2E1,4E0,2E0,2E0,3E0,4E0,4E0,5E0,1E0,1E0,1.79E2,1.1E1,3E0,1.1E1,2E0,6E0,4.7E1,1.58E2,2E0,1E0,1E0,4.6E1,1E0,2E0,4E0,9E0,1E0,1E0,5E0,2E0,1E0,1E0,1E0,3E0],"tree_param":{"num_deleted":"0","num_feature":"6","num_nodes":"85","size_leaf_vector":"1"}},{"base_weights":[5.139529E-2,-2.0137074E0,1.9312237E1,-1.3441224E0,-2.899363E0,1.6988466E1,2.3914648E1,-3.4157403E0,-9.260192E-1,-2.549037E0,-5.0331264E0,1.7804539E1,1.0597755E1,1.2680509E0,4.596685E-1,-4.198709E0,-3.2923853E-1,6.381966E-1,-1.0339942E0,-3.226696E0,-1.547461E0,-6.1181855E0,-2.602735E0,3.7438616E-1,9.107675E-1,1.2721748E0,1.7273897E1,-2.963429E0,-6.192893E0,2.2527916E0,-2.8563957E0,9.9687004E-1,-1.4233174E0,-2.5227716E0,-5.4851055E0,2.5479856E0,-2.6280186E0,-4.0196548E0,-4.3817624E-1,1.3658874E-1,-4.091712E0,-8.289846E-2,2.515652E-1,2.341299E-1,9.955066E-1,-2.791439E-1,4.27362E-3,-4.8463345E-1,-1.5858048E-1,-2.1217938E-1,2.2003925E-1,-3.1940892E-1,2.5327016E-2,-9.900038E-2,1.0275815E-1,-1.0729475E-1,8.856709E-3,-2.4831176E-1,-9.33885E-2,-5.391905E-1,-1.8549974E-1,5.4766823E-2,4.4809514E-1,-3.8858446E-1,-1.02530204E-1,-2.5901353E-1,2.4769334E-1,-8.606427E-2,-2.2615395E-1],"categories":[],"categories_nodes":[],"categories_segments":[],"categories_sizes":[],"default_left":[0,0,0,0,0,0,0,0,0,0,0,0,0,0,0,0,0,0,0,0,0,0,0,0,0,0,0,0,0,0,0,0,0,0,0,0,0,0,0,0,0,0,0,0,0,0,0,0,0,0,0,0,0,0,0,0,0,0,0,0,0,0,0,0,0,0,0,0,0],"id":16,"left_children":[1,3,5,7,9,11,13,15,17,19,21,23,25,-1,-1,27,29,-1,31,33,35,37,39,-1,-1,41,43,45,47,49,51,53,55,57,59,61,63,65,-1,-1,67,-1,-1,-1,-1,-1,-1,-1,-1,-1,-1,-1,-1,-1,-1,-1,-1,-1,-1,-1,-1,-1,-1,-1,-1,-1,-1,-1,-1],"loss_changes":[2.2591662E4,3.00323E2,1.8194727E2,2.514851E2,1.5162317E2,1.9922852E1,1.0752539E2,1.17032715E2,3.768283E2,1.246438E2,6.3189575E1,7.709961E0,4.1383685E2,0E0,0E0,7.771942E1,7.821203E1,0E0,1.9513123E2,1.6580408E2,3.5630005E2,7.580017E1,9.855022E1,0E0,0E0,5.2400898E1,3.9543213E1,2.0812466E2,1.1729205E2,1.0240019E2,7.4498825E1,1.3008557E2,2.3860892E2,1.3156586E2,2.0454254E2,1.4857559E2,1.711752E2,1.610549E2,0E0,0E0,1.4172058E0,0E0,0E0,0E0,0E0,0E0,0E0,0E0,0E0,0E0,0E0,0E0,0E0,0E0,0E0,0E0,0E0,0E0,0E0,0E0,0E0,0E0,0E0,0E0,0E0,0E0,0E0,0E0,0E0],"parents":[2147483647,0,0,1,1,2,2,3,3,4,4,5,5,6,6,7,7,8,8,9,9,10,10,11,11,12,12,15,15,16,16,18,18,19,19,20,20,21,21,22,22,25,25,26,26,27,27,28,28,29,29,30,30,31,31,32,32,33,33,34,34,35,35,36,36,37,37,40,40],"right_children":[2,4,6,8,10,12,14,16,18,20,22,24,26,-1,-1,28,30,-1,32,34,36,38,40,-1,-1,42,44,46,48,50,52,54,56,58,60,62,64,66,-1,-1,68,-1,-1,-1,-1,-1,-1,-1,-1,-1,-1,-1,-1,-1,-1,-1,-1,-1,-1,-1,-1,-1,-1,-1,-1,-1,-1,-1,-1],"split_conditions":[6.2573E4,4E0,9.9769E4,3.1949E4,4.01E4,9.7448E4,5E0,3E0,3.2008E4,3.5702E4,4.2289E4,7.2887E4,4E0,1.2680509E0,4.596685E-1,3.0966E4,2.9233E4,6.381966E-1,3.3732E4,3.4391E4,3.6581E4,4.1255E4,5E0,3.7438616E-1,9.107675E-1,9.8936E4,9.7858E4,2.9472E4,3.1543E4,2.4847E4,3.0159E4,3.2705E4,3.8498E4,3.0213E4,3.4661E4,3.6306E4,3.6736E4,4.1051E4,-4.3817624E-1,1.3658874E-1,4.3874E4,-8.289846E-2,2.515652E-1,2.341299E-1,9.955066E-1,-2.791439E-1,4.27362E-3,-4.8463345E-1,-1.5858048E-1,-2.1217938E-1,2.2003925E-1,-3.1940892E-1,2.5327016E-2,-9.900038E-2,1.0275815E-1,-1.0729475E-1,8.856709E-3,-2.4831176E-1,-9.33885E-2,-5.391905E-1,-1.8549974E-1,5.4766823E-2,4.4809514E-1,-3.8858446E-1,-1.02530204E-1,-2.5901353E-1,2.4769334E-1,-8.606427E-2,-2.2615395E-1],"split_indices":[0,2,0,0,0,0,2,2,0,0,0,0,2,0,0,0,0,0,0,0,0,0,2,0,0,0,0,0,0,0,0,0,0,0,0,0,0,0,0,0,0,0,0,0,0,0,0,0,0,0,0,0,0,0,0,0,0,0,0,0,0,0,0,0,0,0,0,0,0],"split_type":[0,0,0,0,0,0,0,0,0,0,0,0,0,0,0,0,0,0,0,0,0,0,0,0,0,0,0,0,0,0,0,0,0,0,0,0,0,0,0,0,0,0,0,0,0,0,0,0,0,0,0,0,0,0,0,0,0,0,0,0,0,0,0,0,0,0,0,0,0],"sum_hessian":[5.66E2,5.12E2,5.4E1,2.93E2,2.19E2,3.9E1,1.5E1,4.8E1,2.45E2,1.9E2,2.9E1,3.3E1,6E0,1.3E1,2E0,3.8E1,1E1,1E0,2.44E2,1.12E2,7.8E1,1.9E1,1E1,2E0,3.1E1,3E0,3E0,2.5E1,1.3E1,5E0,5E0,3.9E1,2.05E2,8.7E1,2.5E1,1.6E1,6.2E1,1.2E1,7E0,2E0,8E0,2E0,1E0,1E0,2E0,1.3E1,1.2E1,5E0,8E0,1E0,4E0,2E0,3E0,1E1,2.9E1,1.41E2,6.4E1,1.7E1,7E1,5E0,2E1,1.4E1,2E0,5E0,5.7E1,1.1E1,1E0,2E0,6E0],"tree_param":{"num_deleted":"0","num_feature":"6","num_nodes":"69","size_leaf_vector":"1"}},{"base_weights":[5.2477762E-2,-1.9175841E0,1.8426828E1,-1.6022935E0,-3.7094226E0,1.620613E1,2.2826897E1,-4.3663845E0,-1.4595944E0,-2.7088463E0,-6.2009873E0,1.0113578E1,1.6983828E1,2.4183542E1,4.443461E-1,-3.0183802E0,-8.076323E0,-1.5525964E0,9.7411823E-1,-3.229843E0,2.1711006E0,-8.829947E0,-4.56074E0,1.8301785E1,-6.030235E-1,8.978579E0,1.9506575E1,1.3496834E0,1.37265835E1,-5.307451E0,-8.8528556E-1,-5.592293E-1,-2.2759526E0,-1.4569999E0,-6.0905476E0,3.1781569E0,-3.2289722E0,-1.3579205E0,-4.1258655E0,4.6665726E0,-9.399478E-2,-1.2744294E-1,-4.7259927E-1,9.7307205E-2,-5.1645274E0,1.0438131E0,2.6445886E-1,-5.655388E-1,6.736486E0,1.2279055E1,-2.8155491E0,1.0409515E0,1.0092952E1,1.1838993E0,-4.001719E-2,-3.3623353E-1,-1.5560925E-1,8.00594E-2,-1.4048997E-1,-3.223133E-3,-1.6747332E-1,-7.485682E-2,3.5992262E-1,-3.9749184E-1,-1.6925034E-1,-6.359935E-2,2.5029796E-1,-5.6130666E-2,-2.0007491E-1,-1.1657714E-1,2.1436857E-1,-4.5536643E-1,-1.6750018E-1,6.6165544E-2,2.6699448E-1,-1.866841E-1,-3.2250208E-1,5.8666325E-1,-8.1426814E-2,7.086155E-1,2.1997643E-1,2.8900298E-1,-5.001692E-1,9.707306E-1,1.454442E-1],"categories":[],"categories_nodes":[],"categories_segments":[],"categories_sizes":[],"default_left":[0,0,0,0,0,0,0,0,0,0,0,0,0,0,0,0,0,0,0,0,0,0,0,0,0,0,0,0,0,0,0,0,0,0,0,0,0,0,0,0,0,0,0,0,0,0,0,0,0,0,0,0,0,0,0,0,0,0,0,0,0,0,0,0,0,0,0,0,0,0,0,0,0,0,0,0,0,0,0,0,0,0,0,0,0],"id":17,"left_children":[1,3,5,7,9,11,13,15,17,19,21,23,25,27,-1,29,31,33,35,37,39,41,43,45,47,49,51,-1,53,55,57,-1,59,61,63,65,67,69,71,73,-1,-1,-1,-1,75,-1,-1,-1,77,79,81,-1,83,-1,-1,-1,-1,-1,-1,-1,-1,-1,-1,-1,-1,-1,-1,-1,-1,-1,-1,-1,-1,-1,-1,-1,-1,-1,-1,-1,-1,-1,-1,-1,-1],"loss_changes":[2.0559947E4,2.838756E2,1.6748047E2,1.6638867E2,1.7267065E2,1.7759766E1,8.766797E1,8.064383E1,9.61225E1,1.4938876E2,5.0283875E1,6.2528467E2,5.1149512E2,4.086377E1,0E0,7.830907E1,6.468982E1,1.659524E2,1.5848256E2,7.993884E1,6.942755E1,3.2578125E0,6.8982544E1,2.358435E1,3.9055347E2,4.238346E2,9.874805E1,0E0,7.417669E2,3.960968E0,5.2351536E1,0E0,6.9062777E0,1.483471E2,1.3332825E1,9.584132E1,5.2711678E0,1.08931046E2,1.0089795E2,1.937973E0,0E0,0E0,0E0,0E0,1.6687927E0,0E0,0E0,0E0,1.4450255E2,5.6992065E1,2.431716E2,0E0,2.7836237E2,0E0,0E0,0E0,0E0,0E0,0E0,0E0,0E0,0E0,0E0,0E0,0E0,0E0,0E0,0E0,0E0,0E0,0E0,0E0,0E0,0E0,0E0,0E0,0E0,0E0,0E0,0E0,0E0,0E0,0E0,0E0,0E0],"parents":[2147483647,0,0,1,1,2,2,3,3,4,4,5,5,6,6,7,7,8,8,9,9,10,10,11,11,12,12,13,13,15,15,16,16,17,17,18,18,19,19,20,20,21,21,22,22,23,23,24,24,25,25,26,26,28,28,29,29,30,30,32,32,33,33,34,34,35,35,36,36,37,37,38,38,39,39,44,44,48,48,49,49,50,50,52,52],"right_children":[2,4,6,8,10,12,14,16,18,20,22,24,26,28,-1,30,32,34,36,38,40,42,44,46,48,50,52,-1,54,56,58,-1,60,62,64,66,68,70,72,74,-1,-1,-1,-1,76,-1,-1,-1,78,80,82,-1,84,-1,-1,-1,-1,-1,-1,-1,-1,-1,-1,-1,-1,-1,-1,-1,-1,-1,-1,-1,-1,-1,-1,-1,-1,-1,-1,-1,-1,-1,-1,-1,-1],"split_conditions":[6.2573E4,6E0,9.9769E4,2.8708E4,3.7333E4,1E0,5E0,2.8317E4,4.2972E4,3.6948E4,3.8166E4,8.1375E4,8.0641E4,1.08665E5,4.443461E-1,2.7007E4,2.8522E4,4.2289E4,4.6704E4,3.325E4,3.728E4,3.745E4,3.8443E4,8.0641E4,9.377E4,6E0,1E0,1.3496834E0,2E0,3E0,2E0,-5.592293E-1,3E0,4.2039E4,1E0,2E0,4.7063E4,3.2893E4,3.3554E4,3.7035E4,-9.399478E-2,-1.2744294E-1,-4.7259927E-1,9.7307205E-2,4.1255E4,1.0438131E0,2.6445886E-1,-5.655388E-1,9.7448E4,5E0,7.5477E4,1.0409515E0,8.3834E4,1.1838993E0,-4.001719E-2,-3.3623353E-1,-1.5560925E-1,8.00594E-2,-1.4048997E-1,-3.223133E-3,-1.6747332E-1,-7.485682E-2,3.5992262E-1,-3.9749184E-1,-1.6925034E-1,-6.359935E-2,2.5029796E-1,-5.6130666E-2,-2.0007491E-1,-1.1657714E-1,2.1436857E-1,-4.5536643E-1,-1.6750018E-1,6.6165544E-2,2.6699448E-1,-1.866841E-1,-3.2250208E-1,5.8666325E-1,-8.1426814E-2,7.086155E-1,2.1997643E-1,2.8900298E-1,-5.001692E-1,9.707306E-1,1.454442E-1],"split_indices":[0,2,0,0,0,2,2,0,0,0,0,0,0,0,0,0,0,0,0,0,0,0,0,0,0,2,4,0,2,2,2,0,2,0,2,2,0,0,0,0,0,0,0,0,0,0,0,0,0,2,0,0,0,0,0,0,0,0,0,0,0,0,0,0,0,0,0,0,0,0,0,0,0,0,0,0,0,0,0,0,0,0,0,0,0],"split_type":[0,0,0,0,0,0,0,0,0,0,0,0,0,0,0,0,0,0,0,0,0,0,0,0,0,0,0,0,0,0,0,0,0,0,0,0,0,0,0,0,0,0,0,0,0,0,0,0,0,0,0,0,0,0,0,0,0,0,0,0,0,0,0,0,0,0,0,0,0,0,0,0,0,0,0,0,0,0,0,0,0,0,0,0,0],"sum_hessian":[5.66E2,5.12E2,5.4E1,4.37E2,7.5E1,3.9E1,1.5E1,2E1,4.17E2,5.5E1,2E1,6E0,3.3E1,1.3E1,2E0,1.6E1,4E0,4.02E2,1.5E1,5E1,5E0,6E0,1.4E1,3E0,3E0,9E0,2.4E1,9E0,4E0,7E0,9E0,2E0,2E0,3.95E2,7E0,1E1,5E0,1.7E1,3.3E1,3E0,2E0,1E0,5E0,1E0,1.3E1,2E0,1E0,1E0,2E0,7E0,2E0,2E1,4E0,2E0,2E0,3E0,4E0,4E0,5E0,1E0,1E0,3.94E2,1E0,3E0,4E0,3E0,7E0,2E0,3E0,1.5E1,2E0,3E0,3E1,1E0,2E0,8E0,5E0,1E0,1E0,5E0,2E0,1E0,1E0,1E0,3E0],"tree_param":{"num_deleted":"0","num_feature":"6","num_nodes":"85","size_leaf_vector":"1"}},{"base_weights":[5.7135526E-2,-1.8274195E0,1.7633856E1,-1.2021983E0,-2.6546361E0,1.5498884E1,2.1869171E1,-3.176557E0,-8.0404466E-1,-2.3188584E0,-4.7039332E0,9.78618E0,1.621918E1,2.3152475E1,4.2953467E-1,-3.9228935E0,-2.4167667E-1,6.241131E-1,-9.092225E-1,-2.9670484E0,-1.3623478E0,-5.7220993E0,-2.4250922E0,1.7713762E1,-5.8794785E-1,8.601391E0,1.8617527E1,1.2889475E0,1.3269031E1,-2.7291267E0,-5.8596826E0,2.2571354E0,-2.7002094E0,1.0201057E0,-1.2794356E0,-2.2950022E0,-5.1275496E0,2.5478666E0,-2.3958604E0,-3.7246382E0,-4.1263556E-1,1.2879963E-1,-3.8226657E0,1.0090193E0,2.578474E-1,-5.5140036E-1,6.5680747E0,1.1781174E1,-2.7451603E0,9.913821E-1,9.811537E0,1.1444359E0,-3.868332E-2,-2.6041228E-1,7.5313128E-3,-4.6132135E-1,-1.4820552E-1,-2.0298462E-1,2.1662198E-1,-3.0626678E-1,2.7184391E-2,3.0073378E-2,4.336749E-1,-1.4154027E-1,-2.8808465E-2,-2.302465E-1,-8.385313E-2,-5.128331E-1,-1.7089598E-1,5.693952E-2,4.3719792E-1,-3.6695835E-1,-9.21588E-2,-2.4277925E-1,2.4616814E-1,-1.19371854E-1,-2.5099212E-1,5.719967E-1,-7.93911E-2,6.790897E-1,2.1264382E-1,2.8177795E-1,-4.87665E-1,9.464623E-1,1.3998996E-1],"categories":[],"categories_nodes":[],"categories_segments":[],"categories_sizes":[],"default_left":[0,0,0,0,0,0,0,0,0,0,0,0,0,0,0,0,0,0,0,0,0,0,0,0,0,0,0,0,0,0,0,0,0,0,0,0,0,0,0,0,0,0,0,0,0,0,0,0,0,0,0,0,0,0,0,0,0,0,0,0,0,0,0,0,0,0,0,0,0,0,0,0,0,0,0,0,0,0,0,0,0,0,0,0,0],"id":18,"left_children":[1,3,5,7,9,11,13,15,17,19,21,23,25,27,-1,29,31,-1,33,35,37,39,41,43,45,47,49,-1,51,53,55,57,59,61,63,65,67,69,71,73,-1,-1,75,-1,-1,-1,77,79,81,-1,83,-1,-1,-1,-1,-1,-1,-1,-1,-1,-1,-1,-1,-1,-1,-1,-1,-1,-1,-1,-1,-1,-1,-1,-1,-1,-1,-1,-1,-1,-1,-1,-1,-1,-1],"loss_changes":[1.8813701E4,2.6212878E2,1.5837695E2,2.2855875E2,1.4047595E2,5.870117E0,7.374951E1,1.063819E2,3.5511566E2,1.1437805E2,5.573053E1,5.86107E2,4.6104688E2,2.1358398E1,0E0,7.417908E1,7.367226E1,0E0,1.762995E2,1.5230334E2,3.2536353E2,7.0357666E1,8.673037E1,1.982251E1,3.7127E2,3.9313684E2,7.186621E1,0E0,6.9314E2,1.8640498E2,1.09132996E2,9.62444E1,6.999482E1,1.22943275E2,2.2312036E2,1.1788809E2,1.9293457E2,1.3846548E2,1.5859424E2,1.5105139E2,0E0,0E0,3.4794464E0,0E0,0E0,0E0,1.3736772E2,5.0683105E1,2.3116505E2,0E0,2.666568E2,0E0,0E0,0E0,0E0,0E0,0E0,0E0,0E0,0E0,0E0,0E0,0E0,0E0,0E0,0E0,0E0,0E0,0E0,0E0,0E0,0E0,0E0,0E0,0E0,0E0,0E0,0E0,0E0,0E0,0E0,0E0,0E0,0E0,0E0],"parents":[2147483647,0,0,1,1,2,2,3,3,4,4,5,5,6,6,7,7,8,8,9,9,10,10,11,11,12,12,13,13,15,15,16,16,18,18,19,19,20,20,21,21,22,22,23,23,24,24,25,25,26,26,28,28,29,29,30,30,31,31,32,32,33,33,34,34,35,35,36,36,37,37,38,38,39,39,42,42,46,46,47,47,48,48,50,50],"right_children":[2,4,6,8,10,12,14,16,18,20,22,24,26,28,-1,30,32,-1,34,36,38,40,42,44,46,48,50,-1,52,54,56,58,60,62,64,66,68,70,72,74,-1,-1,76,-1,-1,-1,78,80,82,-1,84,-1,-1,-1,-1,-1,-1,-1,-1,-1,-1,-1,-1,-1,-1,-1,-1,-1,-1,-1,-1,-1,-1,-1,-1,-1,-1,-1,-1,-1,-1,-1,-1,-1,-1],"split_conditions":[6.2573E4,4E0,9.9769E4,3.1949E4,4.01E4,1E0,5E0,3E0,3.2008E4,3.5702E4,4.2289E4,8.1375E4,8.0641E4,1.08665E5,4.2953467E-1,3.0966E4,2.9233E4,6.241131E-1,3.3732E4,3.4391E4,3.6581E4,4.1255E4,5E0,8.0641E4,9.377E4,6E0,1E0,1.2889475E0,2E0,2.9472E4,3.1543E4,2.4847E4,3.0159E4,3.3687E4,3.5702E4,3.0213E4,3.4661E4,3.6306E4,3.6736E4,4.1051E4,-4.1263556E-1,1.2879963E-1,4.4529E4,1.0090193E0,2.578474E-1,-5.5140036E-1,9.7448E4,5E0,7.5477E4,9.913821E-1,8.3834E4,1.1444359E0,-3.868332E-2,-2.6041228E-1,7.5313128E-3,-4.6132135E-1,-1.4820552E-1,-2.0298462E-1,2.1662198E-1,-3.0626678E-1,2.7184391E-2,3.0073378E-2,4.336749E-1,-1.4154027E-1,-2.8808465E-2,-2.302465E-1,-8.385313E-2,-5.128331E-1,-1.7089598E-1,5.693952E-2,4.3719792E-1,-3.6695835E-1,-9.21588E-2,-2.4277925E-1,2.4616814E-1,-1.19371854E-1,-2.5099212E-1,5.719967E-1,-7.93911E-2,6.790897E-1,2.1264382E-1,2.8177795E-1,-4.87665E-1,9.464623E-1,1.3998996E-1],"split_indices":[0,2,0,0,0,2,2,2,0,0,0,0,0,0,0,0,0,0,0,0,0,0,2,0,0,2,4,0,2,0,0,0,0,0,0,0,0,0,0,0,0,0,0,0,0,0,0,2,0,0,0,0,0,0,0,0,0,0,0,0,0,0,0,0,0,0,0,0,0,0,0,0,0,0,0,0,0,0,0,0,0,0,0,0,0],"split_type":[0,0,0,0,0,0,0,0,0,0,0,0,0,0,0,0,0,0,0,0,0,0,0,0,0,0,0,0,0,0,0,0,0,0,0,0,0,0,0,0,0,0,0,0,0,0,0,0,0,0,0,0,0,0,0,0,0,0,0,0,0,0,0,0,0,0,0,0,0,0,0,0,0,0,0,0,0,0,0,0,0,0,0,0,0],"sum_hessian":[5.66E2,5.12E2,5.4E1,2.93E2,2.19E2,3.9E1,1.5E1,4.8E1,2.45E2,1.9E2,2.9E1,6E0,3.3E1,1.3E1,2E0,3.8E1,1E1,1E0,2.44E2,1.12E2,7.8E1,1.9E1,1E1,3E0,3E0,9E0,2.4E1,9E0,4E0,2.5E1,1.3E1,5E0,5E0,3.9E1,2.05E2,8.7E1,2.5E1,1.6E1,6.2E1,1.2E1,7E0,2E0,8E0,2E0,1E0,1E0,2E0,7E0,2E0,2E1,4E0,2E0,2E0,1.3E1,1.2E1,5E0,8E0,1E0,4E0,2E0,3E0,3.8E1,1E0,6.3E1,1.42E2,1.7E1,7E1,5E0,2E1,1.4E1,2E0,5E0,5.7E1,1.1E1,1E0,5E0,3E0,1E0,1E0,5E0,2E0,1E0,1E0,1E0,3E0],"tree_param":{"num_deleted":"0","num_feature":"6","num_nodes":"85","size_leaf_vector":"1"}},{"base_weights":[6.3048095E-2,-1.7396038E0,1.6875727E1,-1.443278E0,-3.4244866E0,1.4823235E1,2.0952227E1,-4.04061E0,-1.3093371E0,-2.465501E0,-5.818711E0,7.7582806E-1,9.338046E0,2.2165901E1,4.1521683E-1,-2.723224E0,-7.7116003E0,-1.771302E0,-8.6068237E-1,-2.963594E0,2.1792057E0,-8.395177E0,-4.228446E0,1.1482201E0,1.5193361E1,1.3342402E0,1.5441124E1,-3.8974342E0,8.7436754E-1,-5.3241056E-1,-2.2044563E0,-1.4114141E0,-6.2357874E0,5.4522343E0,-1.1323113E0,1.6473436E0,-3.2860973E0,4.5856533E0,-8.778966E-2,-1.2195291E-1,-4.4906768E-1,9.7178556E-2,-4.8081307E0,-8.221207E-2,2.381401E-1,1.774683E-1,8.945786E-1,1.278494E0,7.803225E0,-3.3970994E-1,-6.1884094E-2,9.0981774E-2,-7.26676E-2,3.3678056E-3,-1.6870204E-1,-8.283263E-2,1.1923891E-1,-6.421953E-1,-1.7567162E-1,6.385647E-1,7.6830186E-2,1.2352256E-2,-7.7079974E-2,-1.3554509E-2,1.8506613E-1,-5.7067245E-1,-1.4351678E-1,6.681538E-2,2.6116666E-1,-1.3662307E-1,-2.6825762E-1,9.505249E-1,8.798355E-2],"categories":[],"categories_nodes":[],"categories_segments":[],"categories_sizes":[],"default_left":[0,0,0,0,0,0,0,0,0,0,0,0,0,0,0,0,0,0,0,0,0,0,0,0,0,0,0,0,0,0,0,0,0,0,0,0,0,0,0,0,0,0,0,0,0,0,0,0,0,0,0,0,0,0,0,0,0,0,0,0,0,0,0,0,0,0,0,0,0,0,0,0,0],"id":19,"left_children":[1,3,5,7,9,11,13,15,17,19,21,-1,23,25,-1,27,29,31,33,35,37,39,41,43,45,-1,47,49,51,-1,53,55,57,59,61,63,65,67,-1,-1,-1,-1,69,-1,-1,-1,-1,-1,71,-1,-1,-1,-1,-1,-1,-1,-1,-1,-1,-1,-1,-1,-1,-1,-1,-1,-1,-1,-1,-1,-1,-1,-1],"loss_changes":[1.7213656E4,2.5118518E2,1.4960449E2,1.4708478E2,1.6015198E2,7.227539E0,6.153418E1,8.055795E1,8.511127E1,1.36014E2,5.0544006E1,0E0,3.182328E2,1.3396973E1,0E0,7.522137E1,5.7388153E1,3.2057507E2,3.731346E2,8.125253E1,6.486767E1,2.5332947E0,6.301233E1,4.820552E1,6.216803E1,0E0,4.1937183E2,9.175174E1,1.3646163E1,0E0,8.198489E0,1.8176633E2,2.247185E2,2.383042E2,1.16678986E2,1.6765083E1,1.2943353E2,1.3081894E0,0E0,0E0,0E0,0E0,1.5266113E0,0E0,0E0,0E0,0E0,0E0,3.729384E2,0E0,0E0,0E0,0E0,0E0,0E0,0E0,0E0,0E0,0E0,0E0,0E0,0E0,0E0,0E0,0E0,0E0,0E0,0E0,0E0,0E0,0E0,0E0,0E0],"parents":[2147483647,0,0,1,1,2,2,3,3,4,4,5,5,6,6,7,7,8,8,9,9,10,10,12,12,13,13,15,15,16,16,17,17,18,18,19,19,20,20,21,21,22,22,23,23,24,24,26,26,27,27,28,28,30,30,31,31,32,32,33,33,34,34,35,35,36,36,37,37,42,42,48,48],"right_children":[2,4,6,8,10,12,14,16,18,20,22,-1,24,26,-1,28,30,32,34,36,38,40,42,44,46,-1,48,50,52,-1,54,56,58,60,62,64,66,68,-1,-1,-1,-1,70,-1,-1,-1,-1,-1,72,-1,-1,-1,-1,-1,-1,-1,-1,-1,-1,-1,-1,-1,-1,-1,-1,-1,-1,-1,-1,-1,-1,-1,-1],"split_conditions":[6.2573E4,6E0,9.9769E4,2.8708E4,3.7333E4,9.7448E4,5E0,2.8317E4,3.5702E4,3.6948E4,3.8166E4,7.7582806E-1,4E0,1E0,4.1521683E-1,2.7827E4,2.8522E4,3.5361E4,3.598E4,2.8708E4,3.728E4,3.745E4,3.8443E4,9.8936E4,9.7858E4,1.3342402E0,2E0,3E0,2E0,-5.3241056E-1,3E0,3.5132E4,3.5433E4,1E0,3.7205E4,2.8105E4,2.9765E4,3.7035E4,-8.778966E-2,-1.2195291E-1,-4.4906768E-1,9.7178556E-2,3.9487E4,-8.221207E-2,2.381401E-1,1.774683E-1,8.945786E-1,1.278494E0,1.00568E5,-3.3970994E-1,-6.1884094E-2,9.0981774E-2,-7.26676E-2,3.3678056E-3,-1.6870204E-1,-8.283263E-2,1.1923891E-1,-6.421953E-1,-1.7567162E-1,6.385647E-1,7.6830186E-2,1.2352256E-2,-7.7079974E-2,-1.3554509E-2,1.8506613E-1,-5.7067245E-1,-1.4351678E-1,6.681538E-2,2.6116666E-1,-1.3662307E-1,-2.6825762E-1,9.505249E-1,8.798355E-2],"split_indices":[0,2,0,0,0,0,2,0,0,0,0,0,2,3,0,0,0,0,0,0,0,0,0,0,0,0,2,2,2,0,2,0,0,2,0,0,0,0,0,0,0,0,0,0,0,0,0,0,0,0,0,0,0,0,0,0,0,0,0,0,0,0,0,0,0,0,0,0,0,0,0,0,0],"split_type":[0,0,0,0,0,0,0,0,0,0,0,0,0,0,0,0,0,0,0,0,0,0,0,0,0,0,0,0,0,0,0,0,0,0,0,0,0,0,0,0,0,0,0,0,0,0,0,0,0,0,0,0,0,0,0,0,0,0,0,0,0,0,0,0,0,0,0,0,0,0,0,0,0],"sum_hessian":[5.66E2,5.12E2,5.4E1,4.37E2,7.5E1,3.9E1,1.5E1,2E1,4.17E2,5.5E1,2E1,3.3E1,6E0,1.3E1,2E0,1.6E1,4E0,2.04E2,2.13E2,5E1,5E0,6E0,1.4E1,3E0,3E0,6E0,7E0,1.2E1,4E0,2E0,2E0,1.9E2,1.4E1,8E0,2.05E2,3E0,4.7E1,3E0,2E0,1E0,5E0,1E0,1.3E1,2E0,1E0,1E0,2E0,2E0,5E0,5E0,7E0,3E0,1E0,1E0,1E0,1.79E2,1.1E1,3E0,1.1E1,2E0,6E0,4.7E1,1.58E2,2E0,1E0,1E0,4.6E1,1E0,2E0,4E0,9E0,1E0,4E0],"tree_param":{"num_deleted":"0","num_feature":"6","num_nodes":"73","size_leaf_vector":"1"}},{"base_weights":[6.638106E-2,-1.6572886E0,1.6142311E1,-1.373881E0,-3.2688048E0,1.413217E1,2.0158768E1,-3.8900561E0,-1.2441834E0,-2.3476276E0,-5.5696197E0,8.927035E0,1.4788163E1,2.1318407E1,4.0137634E-1,-2.6096077E0,-7.46557E0,-1.3320992E0,1.0479567E0,-2.8260553E0,2.1102784E0,-8.0569935E0,-4.0375376E0,1.6562922E1,-9.40609E-1,7.5416613E0,1.7095238E1,1.1855639E0,1.226899E1,-4.7917113E0,-6.0296404E-1,-5.146636E-1,-2.1493454E0,-1.2394264E0,-5.75289E0,3.1465874E0,-2.9741924E0,1.6078539E0,-3.1366715E0,4.438367E0,-8.486328E-2,-1.18904114E-1,-4.303566E-1,9.474907E-2,-4.5966444E0,9.495244E-1,2.320055E-1,-5.5701107E-1,6.1726685E0,1.0624732E1,-3.1937485E0,1.2623318E0,1.4836108E1,1.0627426E0,-4.0326692E-2,-3.0112004E-1,-1.4244087E-1,8.794128E-2,-1.235314E-1,3.2835961E-3,-1.644845E-1,-6.391845E-2,3.535717E-1,-3.786151E-1,-1.5733914E-1,1.8196298E-2,3.206498E-1,-2.0853208E-1,-6.666537E-2,-1.3102722E-2,1.8043947E-1,-5.5640566E-1,-1.3649364E-1,6.5145016E-2,2.5246114E-1,-1.6549979E-1,-2.880255E-1,5.383011E-1,-7.5350955E-2,6.184681E-1,1.7969476E-1,2.5533792E-1,-4.9486905E-1,5.366067E-1,9.785805E-1],"categories":[],"categories_nodes":[],"categories_segments":[],"categories_sizes":[],"default_left":[0,0,0,0,0,0,0,0,0,0,0,0,0,0,0,0,0,0,0,0,0,0,0,0,0,0,0,0,0,0,0,0,0,0,0,0,0,0,0,0,0,0,0,0,0,0,0,0,0,0,0,0,0,0,0,0,0,0,0,0,0,0,0,0,0,0,0,0,0,0,0,0,0,0,0,0,0,0,0,0,0,0,0,0,0],"id":20,"left_children":[1,3,5,7,9,11,13,15,17,19,21,23,25,27,-1,29,31,33,35,37,39,41,43,45,47,49,51,-1,53,55,57,-1,59,61,63,65,67,69,71,73,-1,-1,-1,-1,75,-1,-1,-1,77,79,81,-1,83,-1,-1,-1,-1,-1,-1,-1,-1,-1,-1,-1,-1,-1,-1,-1,-1,-1,-1,-1,-1,-1,-1,-1,-1,-1,-1,-1,-1,-1,-1,-1,-1],"loss_changes":[1.5738092E4,2.2980444E2,1.5916309E2,1.3809766E2,1.4800342E2,4.5668945E0,5.395215E1,7.6661285E1,8.562933E1,1.2539972E2,4.749768E1,5.4301666E2,4.3949316E2,1.2243164E1,0E0,7.154874E1,5.3039703E1,1.5797363E2,1.4441464E2,7.528281E1,6.0718887E1,1.4008484E0,5.846425E1,2.7655762E1,3.5897556E2,3.649131E2,8.581445E1,0E0,6.0461694E2,1.9720917E0,4.8455704E1,0E0,7.793689E0,1.3720367E2,1.4104279E1,9.764856E1,6.218666E0,1.5911964E1,1.25665375E2,1.082634E0,0E0,0E0,0E0,0E0,1.897583E0,0E0,0E0,0E0,1.2205115E2,5.3675415E1,2.1747417E2,0E0,2.1751123E2,0E0,0E0,0E0,0E0,0E0,0E0,0E0,0E0,0E0,0E0,0E0,0E0,0E0,0E0,0E0,0E0,0E0,0E0,0E0,0E0,0E0,0E0,0E0,0E0,0E0,0E0,0E0,0E0,0E0,0E0,0E0,0E0],"parents":[2147483647,0,0,1,1,2,2,3,3,4,4,5,5,6,6,7,7,8,8,9,9,10,10,11,11,12,12,13,13,15,15,16,16,17,17,18,18,19,19,20,20,21,21,22,22,23,23,24,24,25,25,26,26,28,28,29,29,30,30,32,32,33,33,34,34,35,35,36,36,37,37,38,38,39,39,44,44,48,48,49,49,50,50,52,52],"right_children":[2,4,6,8,10,12,14,16,18,20,22,24,26,28,-1,30,32,34,36,38,40,42,44,46,48,50,52,-1,54,56,58,-1,60,62,64,66,68,70,72,74,-1,-1,-1,-1,76,-1,-1,-1,78,80,82,-1,84,-1,-1,-1,-1,-1,-1,-1,-1,-1,-1,-1,-1,-1,-1,-1,-1,-1,-1,-1,-1,-1,-1,-1,-1,-1,-1,-1,-1,-1,-1,-1,-1],"split_conditions":[6.2573E4,6E0,9.9769E4,2.8708E4,3.7333E4,1E0,5E0,2.8317E4,4.2972E4,3.6948E4,3.8166E4,8.1375E4,8.0641E4,1.08665E5,4.0137634E-1,2.7007E4,2.8522E4,4.2289E4,4.6704E4,2.8708E4,3.728E4,3.745E4,3.8443E4,8.0641E4,9.377E4,6E0,2E0,1.1855639E0,2E0,3E0,2E0,-5.146636E-1,3E0,4.2039E4,1E0,4.5262E4,4E0,2.8105E4,2.9765E4,3.7035E4,-8.486328E-2,-1.18904114E-1,-4.303566E-1,9.474907E-2,4.1255E4,9.495244E-1,2.320055E-1,-5.5701107E-1,9.7448E4,5E0,7.5477E4,1.2623318E0,5E0,1.0627426E0,-4.0326692E-2,-3.0112004E-1,-1.4244087E-1,8.794128E-2,-1.235314E-1,3.2835961E-3,-1.644845E-1,-6.391845E-2,3.535717E-1,-3.786151E-1,-1.5733914E-1,1.8196298E-2,3.206498E-1,-2.0853208E-1,-6.666537E-2,-1.3102722E-2,1.8043947E-1,-5.5640566E-1,-1.3649364E-1,6.5145016E-2,2.5246114E-1,-1.6549979E-1,-2.880255E-1,5.383011E-1,-7.5350955E-2,6.184681E-1,1.7969476E-1,2.5533792E-1,-4.9486905E-1,5.366067E-1,9.785805E-1],"split_indices":[0,2,0,0,0,2,2,0,0,0,0,0,0,0,0,0,0,0,0,0,0,0,0,0,0,2,2,0,2,2,2,0,2,0,2,0,2,0,0,0,0,0,0,0,0,0,0,0,0,2,0,0,2,0,0,0,0,0,0,0,0,0,0,0,0,0,0,0,0,0,0,0,0,0,0,0,0,0,0,0,0,0,0,0,0],"split_type":[0,0,0,0,0,0,0,0,0,0,0,0,0,0,0,0,0,0,0,0,0,0,0,0,0,0,0,0,0,0,0,0,0,0,0,0,0,0,0,0,0,0,0,0,0,0,0,0,0,0,0,0,0,0,0,0,0,0,0,0,0,0,0,0,0,0,0,0,0,0,0,0,0,0,0,0,0,0,0,0,0,0,0,0,0],"sum_hessian":[5.66E2,5.12E2,5.4E1,4.37E2,7.5E1,3.9E1,1.5E1,2E1,4.17E2,5.5E1,2E1,6E0,3.3E1,1.3E1,2E0,1.6E1,4E0,4.02E2,1.5E1,5E1,5E0,6E0,1.4E1,3E0,3E0,9E0,2.4E1,9E0,4E0,7E0,9E0,2E0,2E0,3.95E2,7E0,1E1,5E0,3E0,4.7E1,3E0,2E0,1E0,5E0,1E0,1.3E1,2E0,1E0,1E0,2E0,7E0,2E0,3E0,2.1E1,2E0,2E0,3E0,4E0,4E0,5E0,1E0,1E0,3.94E2,1E0,3E0,4E0,6E0,4E0,2E0,3E0,2E0,1E0,1E0,4.6E1,1E0,2E0,8E0,5E0,1E0,1E0,5E0,2E0,1E0,1E0,1.3E1,8E0],"tree_param":{"num_deleted":"0","num_feature":"6","num_nodes":"85","size_leaf_vector":"1"}},{"base_weights":[7.098924E-2,-1.579372E0,1.5463068E1,-1.0080839E0,-2.3356416E0,1.3536152E1,1.9313915E1,-2.8558893E0,-6.3592726E-1,-2.0682054E0,-4.6485596E0,1.41650505E1,8.547767E0,2.0410202E1,3.8799718E-1,-3.5629582E0,-8.938148E-2,6.12179E-1,-7.384705E-1,-1.5188684E0,-3.0588562E0,-6.5996413E0,-2.0975106E0,2.9240406E-1,1.4502109E1,3.561694E0,9.616051E-1,1.2271258E0,1.4243152E1,-2.3969169E0,-5.473967E0,2.3255532E0,-2.4894192E0,1.1237752E0,-1.0964868E0,-2.7055178E0,-3.6268297E-1,-2.2354753E0,-5.928889E0,-4.0294966E-1,-1.6661882E0,1.2788348E-1,-3.4161806E0,1.2069667E1,9.0243095E-1,1.7828369E-1,3.442838E-1,1.1984057E0,7.0068116E0,-2.3553084E-1,1.3956906E-2,-4.3598494E-1,-1.3509636E-1,-1.9280186E-1,2.1665394E-1,-2.911662E-1,3.1668186E-2,-8.579441E-2,1.06376305E-1,-8.856528E-2,1.9730084E-2,-9.859865E-2,-5.4834765E-1,5.5048533E-2,-6.588533E-2,-1.3475288E-1,1.02177754E-1,-4.2236114E-1,-2.1226008E-1,2.5085783E-1,-2.7831778E-1,-9.804671E-2,-2.3725024E-1,3.355348E-1,7.06157E-1,-8.7159224E-2,1.485672E-1,8.971228E-1,6.15596E-2],"categories":[],"categories_nodes":[],"categories_segments":[],"categories_sizes":[],"default_left":[0,0,0,0,0,0,0,0,0,0,0,0,0,0,0,0,0,0,0,0,0,0,0,0,0,0,0,0,0,0,0,0,0,0,0,0,0,0,0,0,0,0,0,0,0,0,0,0,0,0,0,0,0,0,0,0,0,0,0,0,0,0,0,0,0,0,0,0,0,0,0,0,0,0,0,0,0,0,0],"id":21,"left_children":[1,3,5,7,9,11,13,15,17,19,21,23,25,27,-1,29,31,-1,33,35,37,39,41,-1,43,45,-1,-1,47,49,51,53,55,57,59,61,63,65,67,-1,69,-1,71,73,-1,75,-1,-1,77,-1,-1,-1,-1,-1,-1,-1,-1,-1,-1,-1,-1,-1,-1,-1,-1,-1,-1,-1,-1,-1,-1,-1,-1,-1,-1,-1,-1,-1,-1],"loss_changes":[1.4427634E4,2.1928589E2,1.4667871E2,2.0035977E2,1.2646875E2,4.407715E0,4.428174E1,9.5531006E1,3.339352E2,1.03650085E2,9.565787E1,1.050293E1,3.044112E2,7.215332E0,0E0,7.378366E1,6.9544556E1,0E0,1.6457718E2,1.7737701E2,1.5216528E2,7.296796E1,7.6262566E1,0E0,5.821289E1,6.6250755E1,0E0,0E0,3.9504504E2,1.6229622E2,1.0240213E2,9.116671E1,6.615465E1,1.1766316E2,2.0797917E2,3.6622195E2,9.5104935E1,1.15635254E2,2.774115E1,0E0,1.3219193E2,0E0,8.099251E0,1.47323E2,0E0,2.6646706E1,0E0,0E0,3.568701E2,0E0,0E0,0E0,0E0,0E0,0E0,0E0,0E0,0E0,0E0,0E0,0E0,0E0,0E0,0E0,0E0,0E0,0E0,0E0,0E0,0E0,0E0,0E0,0E0,0E0,0E0,0E0,0E0,0E0,0E0],"parents":[2147483647,0,0,1,1,2,2,3,3,4,4,5,5,6,6,7,7,8,8,9,9,10,10,11,11,12,12,13,13,15,15,16,16,18,18,19,19,20,20,21,21,22,22,24,24,25,25,28,28,29,29,30,30,31,31,32,32,33,33,34,34,35,35,36,36,37,37,38,38,40,40,42,42,43,43,45,45,48,48],"right_children":[2,4,6,8,10,12,14,16,18,20,22,24,26,28,-1,30,32,-1,34,36,38,40,42,-1,44,46,-1,-1,48,50,52,54,56,58,60,62,64,66,68,-1,70,-1,72,74,-1,76,-1,-1,78,-1,-1,-1,-1,-1,-1,-1,-1,-1,-1,-1,-1,-1,-1,-1,-1,-1,-1,-1,-1,-1,-1,-1,-1,-1,-1,-1,-1,-1,-1],"split_conditions":[6.2573E4,4E0,9.9769E4,3.1949E4,4.0742E4,9.7448E4,5E0,3E0,3.2008E4,6E0,4.2289E4,7.2887E4,6E0,1E0,3.8799718E-1,3.0966E4,2.9233E4,6.12179E-1,3.3732E4,3.4661E4,3.7333E4,6E0,5E0,2.9240406E-1,1E0,9.8936E4,9.616051E-1,1.2271258E0,2E0,2.9472E4,3.1543E4,2.4847E4,3.0159E4,3.2705E4,3.8498E4,3.4391E4,3.71E4,3.6948E4,3.7774E4,-4.0294966E-1,4.1255E4,1.2788348E-1,4.4529E4,8.0641E4,9.0243095E-1,4E0,3.442838E-1,1.1984057E0,1.00568E5,-2.3553084E-1,1.3956906E-2,-4.3598494E-1,-1.3509636E-1,-1.9280186E-1,2.1665394E-1,-2.911662E-1,3.1668186E-2,-8.579441E-2,1.06376305E-1,-8.856528E-2,1.9730084E-2,-9.859865E-2,-5.4834765E-1,5.5048533E-2,-6.588533E-2,-1.3475288E-1,1.02177754E-1,-4.2236114E-1,-2.1226008E-1,2.5085783E-1,-2.7831778E-1,-9.804671E-2,-2.3725024E-1,3.355348E-1,7.06157E-1,-8.7159224E-2,1.485672E-1,8.971228E-1,6.15596E-2],"split_indices":[0,2,0,0,0,0,2,2,0,2,0,0,2,3,0,0,0,0,0,0,0,2,2,0,3,0,0,0,2,0,0,0,0,0,0,0,0,0,0,0,0,0,0,0,0,2,0,0,0,0,0,0,0,0,0,0,0,0,0,0,0,0,0,0,0,0,0,0,0,0,0,0,0,0,0,0,0,0,0],"split_type":[0,0,0,0,0,0,0,0,0,0,0,0,0,0,0,0,0,0,0,0,0,0,0,0,0,0,0,0,0,0,0,0,0,0,0,0,0,0,0,0,0,0,0,0,0,0,0,0,0,0,0,0,0,0,0,0,0,0,0,0,0,0,0,0,0,0,0,0,0,0,0,0,0,0,0,0,0,0,0],"sum_hessian":[5.66E2,5.12E2,5.4E1,2.93E2,2.19E2,3.9E1,1.5E1,4.8E1,2.45E2,1.98E2,2.1E1,3.3E1,6E0,1.3E1,2E0,3.8E1,1E1,1E0,2.44E2,1.29E2,6.9E1,1.1E1,1E1,2E0,3.1E1,5E0,1E0,6E0,7E0,2.5E1,1.3E1,5E0,5E0,3.9E1,2.05E2,6.3E1,6.6E1,5.5E1,1.4E1,8E0,3E0,2E0,8E0,2.1E1,1E1,3E0,2E0,2E0,5E0,1.3E1,1.2E1,5E0,8E0,1E0,4E0,2E0,3E0,1E1,2.9E1,1.41E2,6.4E1,5.9E1,4E0,2.6E1,4E1,5E1,5E0,4E0,1E1,1E0,2E0,5E0,3E0,7E0,1.4E1,2E0,1E0,1E0,4E0],"tree_param":{"num_deleted":"0","num_feature":"6","num_nodes":"79","size_leaf_vector":"1"}},{"base_weights":[7.6168075E-2,-1.5051347E0,1.4824025E1,-9.5925903E-1,-2.2277815E0,1.2949442E1,1.8583982E1,-2.7340808E0,-6.018382E-1,-1.9714534E0,-4.4451237E0,8.140961E0,1.35585575E1,1.963142E1,3.7506384E-1,-3.405135E0,-1.0633607E-1,5.9687454E-1,-7.017436E-1,-1.4479858E0,-2.915444E0,-6.3055263E0,-2.0114913E0,1.554413E1,-1.2974491E0,6.8703966E0,1.569148E1,1.0904421E0,1.1350293E1,-2.2855935E0,-5.2410593E0,2.21325E0,-2.4081993E0,1.0681002E0,-1.041996E0,-2.5803506E0,-3.447121E-1,-2.124282E0,-5.674752E0,-3.8504076E-1,-1.5897446E0,2.4724133E0,-3.282627E0,8.9724094E-1,2.085516E-1,-5.607395E-1,5.746595E0,9.839594E0,-3.3375957E0,1.1860603E0,1.351828E1,9.868922E-1,-4.1034445E-2,-2.2459547E-1,1.3312692E-2,-4.1781887E-1,-1.2909202E-1,-1.1241373E-1,2.5030404E-1,-2.814607E-1,3.0480577E-2,3.3038866E-2,4.2384243E-1,-8.416817E-2,1.875878E-2,-9.375089E-2,-5.2641374E-1,5.2397985E-2,-6.267149E-2,-1.2814729E-1,9.792039E-2,-4.0546677E-1,-2.0261185E-1,2.4458638E-1,-2.6904055E-1,3.853178E-2,1.4689922E-1,-9.39615E-2,-2.283533E-1,5.022829E-1,-7.12883E-2,5.743533E-1,1.6323929E-1,2.4056606E-1,-4.9088573E-1,5.3764564E-1,1.0384973E0],"categories":[],"categories_nodes":[],"categories_segments":[],"categories_sizes":[],"default_left":[0,0,0,0,0,0,0,0,0,0,0,0,0,0,0,0,0,0,0,0,0,0,0,0,0,0,0,0,0,0,0,0,0,0,0,0,0,0,0,0,0,0,0,0,0,0,0,0,0,0,0,0,0,0,0,0,0,0,0,0,0,0,0,0,0,0,0,0,0,0,0,0,0,0,0,0,0,0,0,0,0,0,0,0,0,0,0],"id":22,"left_children":[1,3,5,7,9,11,13,15,17,19,21,23,25,27,-1,29,31,-1,33,35,37,39,41,43,45,47,49,-1,51,53,55,57,59,61,63,65,67,69,71,-1,73,75,77,-1,-1,-1,79,81,83,-1,85,-1,-1,-1,-1,-1,-1,-1,-1,-1,-1,-1,-1,-1,-1,-1,-1,-1,-1,-1,-1,-1,-1,-1,-1,-1,-1,-1,-1,-1,-1,-1,-1,-1,-1,-1,-1],"loss_changes":[1.3245223E4,2.0022888E2,1.4700586E2,1.848558E2,1.16277466E2,6.7773438E0,3.847461E1,8.604254E1,3.1655267E2,9.411395E1,8.692233E1,5.092868E2,3.7721484E2,4.904297E0,0E0,6.81814E1,6.406301E1,0E0,1.4865042E2,1.615206E2,1.4075946E2,6.671619E1,7.081218E1,3.4364624E1,3.438796E2,3.3593597E2,1.1558447E2,0E0,5.266223E2,1.4758067E2,9.440555E1,8.601674E1,6.175411E1,1.1510884E2,1.8787065E2,3.390389E2,8.610509E1,1.05311264E2,2.6391266E1,0E0,1.2460822E2,1.1277962E-1,7.6406326E0,0E0,0E0,0E0,1.0682604E2,4.9151733E1,2.0565402E2,0E0,2.1784033E2,0E0,0E0,0E0,0E0,0E0,0E0,0E0,0E0,0E0,0E0,0E0,0E0,0E0,0E0,0E0,0E0,0E0,0E0,0E0,0E0,0E0,0E0,0E0,0E0,0E0,0E0,0E0,0E0,0E0,0E0,0E0,0E0,0E0,0E0,0E0,0E0],"parents":[2147483647,0,0,1,1,2,2,3,3,4,4,5,5,6,6,7,7,8,8,9,9,10,10,11,11,12,12,13,13,15,15,16,16,18,18,19,19,20,20,21,21,22,22,23,23,24,24,25,25,26,26,28,28,29,29,30,30,31,31,32,32,33,33,34,34,35,35,36,36,37,37,38,38,40,40,41,41,42,42,46,46,47,47,48,48,50,50],"right_children":[2,4,6,8,10,12,14,16,18,20,22,24,26,28,-1,30,32,-1,34,36,38,40,42,44,46,48,50,-1,52,54,56,58,60,62,64,66,68,70,72,-1,74,76,78,-1,-1,-1,80,82,84,-1,86,-1,-1,-1,-1,-1,-1,-1,-1,-1,-1,-1,-1,-1,-1,-1,-1,-1,-1,-1,-1,-1,-1,-1,-1,-1,-1,-1,-1,-1,-1,-1,-1,-1,-1,-1,-1],"split_conditions":[6.2573E4,4E0,9.9769E4,3.1949E4,4.0742E4,1E0,5E0,3E0,3.2008E4,6E0,4.2289E4,8.1375E4,8.0641E4,1.08665E5,3.7506384E-1,3.0966E4,2.9233E4,5.9687454E-1,3.3732E4,3.4661E4,3.7333E4,6E0,5E0,8.0641E4,9.377E4,6E0,2E0,1.0904421E0,2E0,2.9472E4,3.1543E4,2.6718E4,3.0159E4,3.3687E4,3.8498E4,3.4391E4,3.71E4,3.6948E4,3.7774E4,-3.8504076E-1,4.1255E4,4.5262E4,4.4529E4,8.9724094E-1,2.085516E-1,-5.607395E-1,9.7448E4,5E0,7.5477E4,1.1860603E0,6E0,9.868922E-1,-4.1034445E-2,-2.2459547E-1,1.3312692E-2,-4.1781887E-1,-1.2909202E-1,-1.1241373E-1,2.5030404E-1,-2.814607E-1,3.0480577E-2,3.3038866E-2,4.2384243E-1,-8.416817E-2,1.875878E-2,-9.375089E-2,-5.2641374E-1,5.2397985E-2,-6.267149E-2,-1.2814729E-1,9.792039E-2,-4.0546677E-1,-2.0261185E-1,2.4458638E-1,-2.6904055E-1,3.853178E-2,1.4689922E-1,-9.39615E-2,-2.283533E-1,5.022829E-1,-7.12883E-2,5.743533E-1,1.6323929E-1,2.4056606E-1,-4.9088573E-1,5.3764564E-1,1.0384973E0],"split_indices":[0,2,0,0,0,2,2,2,0,2,0,0,0,0,0,0,0,0,0,0,0,2,2,0,0,2,2,0,2,0,0,0,0,0,0,0,0,0,0,0,0,0,0,0,0,0,0,2,0,0,2,0,0,0,0,0,0,0,0,0,0,0,0,0,0,0,0,0,0,0,0,0,0,0,0,0,0,0,0,0,0,0,0,0,0,0,0],"split_type":[0,0,0,0,0,0,0,0,0,0,0,0,0,0,0,0,0,0,0,0,0,0,0,0,0,0,0,0,0,0,0,0,0,0,0,0,0,0,0,0,0,0,0,0,0,0,0,0,0,0,0,0,0,0,0,0,0,0,0,0,0,0,0,0,0,0,0,0,0,0,0,0,0,0,0,0,0,0,0,0,0,0,0,0,0,0,0],"sum_hessian":[5.66E2,5.12E2,5.4E1,2.93E2,2.19E2,3.9E1,1.5E1,4.8E1,2.45E2,1.98E2,2.1E1,6E0,3.3E1,1.3E1,2E0,3.8E1,1E1,1E0,2.44E2,1.29E2,6.9E1,1.1E1,1E1,3E0,3E0,9E0,2.4E1,9E0,4E0,2.5E1,1.3E1,5E0,5E0,3.9E1,2.05E2,6.3E1,6.6E1,5.5E1,1.4E1,8E0,3E0,2E0,8E0,2E0,1E0,1E0,2E0,7E0,2E0,3E0,2.1E1,2E0,2E0,1.3E1,1.2E1,5E0,8E0,2E0,3E0,2E0,3E0,3.8E1,1E0,1.41E2,6.4E1,5.9E1,4E0,2.6E1,4E1,5E1,5E0,4E0,1E1,1E0,2E0,1E0,1E0,5E0,3E0,1E0,1E0,5E0,2E0,1E0,1E0,1.7E1,4E0],"tree_param":{"num_deleted":"0","num_feature":"6","num_nodes":"87","size_leaf_vector":"1"}},{"base_weights":[8.106963E-2,-1.4331887E0,1.4203496E1,-9.108987E-1,-2.1246436E0,8.919253E-1,1.2394404E1,-2.6151583E0,-5.6772953E-1,-1.8326049E0,-3.9131346E0,1.3109373E1,-3.966675E-2,-1.4497362E0,-4.100019E0,5.819527E-1,-6.650595E-1,-2.4144814E0,-9.771032E-1,-4.8118525E0,-1.923362E0,8.806923E0,8.086466E-1,-3.239112E0,4.3628845E-1,-4.619948E0,5.5953723E-1,1.0261171E0,-9.902148E-1,-1.7742119E0,-4.4886823E0,2.5654767E0,-1.9175278E0,-3.0735412E0,-3.5175636E-1,2.4106026E0,-3.15431E0,9.880951E0,-2.3628883E-1,-9.061823E-2,-3.3547878E-1,3.4196845E-1,-2.5480038E-2,-2.980691E-1,-1.23354554E-1,8.3482645E-2,-4.1517355E-2,-1.5746895E-2,1.5286915E-1,-1.1799049E-1,-1.851624E-2,-1.9877082E-1,-5.955856E-2,-5.772373E-1,-1.709823E-1,5.922864E-2,4.3074185E-1,-4.039162E-1,-7.3742464E-2,-2.0622876E-1,2.384717E-1,3.7568476E-2,1.4322673E-1,-9.00465E-2,-2.1979013E-1,1.3784082E-1,6.758112E-1],"categories":[],"categories_nodes":[],"categories_segments":[],"categories_sizes":[],"default_left":[0,0,0,0,0,0,0,0,0,0,0,0,0,0,0,0,0,0,0,0,0,0,0,0,0,0,0,0,0,0,0,0,0,0,0,0,0,0,0,0,0,0,0,0,0,0,0,0,0,0,0,0,0,0,0,0,0,0,0,0,0,0,0,0,0,0,0],"id":23,"left_children":[1,3,5,7,9,-1,11,13,15,17,19,21,-1,23,25,-1,27,29,31,33,35,37,-1,39,41,43,45,47,49,51,53,55,57,59,-1,61,63,65,-1,-1,-1,-1,-1,-1,-1,-1,-1,-1,-1,-1,-1,-1,-1,-1,-1,-1,-1,-1,-1,-1,-1,-1,-1,-1,-1,-1,-1],"loss_changes":[1.2145652E4,1.8332935E2,1.4058594E2,1.7046098E2,1.0773663E2,0E0,3.8755322E2,7.885007E1,3.0000967E2,9.271985E1,4.4392426E1,3.5843652E2,0E0,9.928258E1,5.346042E1,0E0,1.3574039E2,1.4210553E2,2.681102E2,5.567209E1,6.628752E1,3.0831616E2,0E0,6.2111923E1,9.433442E1,4.0163116E1,6.0151887E0,1.0992446E2,1.7401971E2,1.08203064E2,1.5664398E2,1.3180603E2,1.5990259E2,1.2683392E2,0E0,1.0721207E-1,7.205368E0,4.0300696E2,0E0,0E0,0E0,0E0,0E0,0E0,0E0,0E0,0E0,0E0,0E0,0E0,0E0,0E0,0E0,0E0,0E0,0E0,0E0,0E0,0E0,0E0,0E0,0E0,0E0,0E0,0E0,0E0,0E0],"parents":[2147483647,0,0,1,1,2,2,3,3,4,4,6,6,7,7,8,8,9,9,10,10,11,11,13,13,14,14,16,16,17,17,18,18,19,19,20,20,21,21,23,23,24,24,25,25,26,26,27,27,28,28,29,29,30,30,31,31,32,32,33,33,35,35,36,36,37,37],"right_children":[2,4,6,8,10,-1,12,14,16,18,20,22,-1,24,26,-1,28,30,32,34,36,38,-1,40,42,44,46,48,50,52,54,56,58,60,-1,62,64,66,-1,-1,-1,-1,-1,-1,-1,-1,-1,-1,-1,-1,-1,-1,-1,-1,-1,-1,-1,-1,-1,-1,-1,-1,-1,-1,-1,-1,-1],"split_conditions":[6.2573E4,4E0,2E0,3.1949E4,4.01E4,8.919253E-1,1.08665E5,3.0648E4,3.2008E4,3.5702E4,4.2289E4,9.0385E4,-3.966675E-2,2.8708E4,3E0,5.819527E-1,3.3732E4,3.4391E4,3.6581E4,4.1255E4,5E0,8.8204E4,8.086466E-1,2.8317E4,2.9233E4,3.1543E4,3.1543E4,3.3112E4,3.5702E4,3.0213E4,3.4458E4,3.6306E4,3.6633E4,4.1051E4,-3.5175636E-1,4.5262E4,4.4529E4,4E0,-2.3628883E-1,-9.061823E-2,-3.3547878E-1,3.4196845E-1,-2.5480038E-2,-2.980691E-1,-1.23354554E-1,8.3482645E-2,-4.1517355E-2,-1.5746895E-2,1.5286915E-1,-1.1799049E-1,-1.851624E-2,-1.9877082E-1,-5.955856E-2,-5.772373E-1,-1.709823E-1,5.922864E-2,4.3074185E-1,-4.039162E-1,-7.3742464E-2,-2.0622876E-1,2.384717E-1,3.7568476E-2,1.4322673E-1,-9.00465E-2,-2.1979013E-1,1.3784082E-1,6.758112E-1],"split_indices":[0,2,2,0,0,0,0,0,0,0,0,0,0,0,2,0,0,0,0,0,2,0,0,0,0,0,0,0,0,0,0,0,0,0,0,0,0,2,0,0,0,0,0,0,0,0,0,0,0,0,0,0,0,0,0,0,0,0,0,0,0,0,0,0,0,0,0],"split_type":[0,0,0,0,0,0,0,0,0,0,0,0,0,0,0,0,0,0,0,0,0,0,0,0,0,0,0,0,0,0,0,0,0,0,0,0,0,0,0,0,0,0,0,0,0,0,0,0,0,0,0,0,0,0,0,0,0,0,0,0,0,0,0,0,0,0,0],"sum_hessian":[5.66E2,5.12E2,5.4E1,2.93E2,2.19E2,1.5E1,3.9E1,4.8E1,2.45E2,1.9E2,2.9E1,3.7E1,2E0,2.8E1,2E1,1E0,2.44E2,1.12E2,7.8E1,1.9E1,1E1,1.7E1,2E1,1.4E1,1.4E1,1.8E1,2E0,3.9E1,2.05E2,8.7E1,2.5E1,1.6E1,6.2E1,1.2E1,7E0,2E0,8E0,1.6E1,1E0,1.1E1,3E0,1E0,1.3E1,1E1,8E0,1E0,1E0,2.4E1,1.5E1,6.3E1,1.42E2,1.7E1,7E1,2E0,2.3E1,1.4E1,2E0,3E0,5.9E1,1.1E1,1E0,1E0,1E0,5E0,3E0,6E0,1E1],"tree_param":{"num_deleted":"0","num_feature":"6","num_nodes":"67","size_leaf_vector":"1"}},{"base_weights":[7.8584015E-2,-1.3641595E0,1.3534018E1,-1.1187139E0,-2.760752E0,1.1758312E1,1.7127403E1,-3.3592076E0,-1.0034769E0,-1.9368398E0,-4.8263865E0,7.1088443E0,1.2369723E1,1.813586E1,3.356069E-1,-2.1327581E0,-6.8572946E0,-1.0843235E0,1.095567E0,-2.3547566E0,1.9382597E0,-7.7259674E0,-3.6896632E0,8.3760226E-1,-9.884491E-2,6.053355E0,1.4401482E1,1.0921004E0,1.2625999E1,-4.255485E0,-2.2130089E-1,-4.7772938E-1,-1.8742371E0,-9.9213815E-1,-5.5119624E0,3.076758E0,-2.7192109E0,-5.8988065E-1,-3.2198453E0,4.201085E0,-8.6246364E-2,-9.3392275E-2,-8.7235365E0,7.434864E-2,-4.1061387E0,-5.1730576E0,5.008316E0,8.9559555E0,-3.7046967E0,1.108136E0,1.2335734E1,1.0941061E0,5.8936057E0,-2.6917514E-1,-1.2509869E-1,1.064534E-1,-1.071529E-1,2.3091603E-2,-1.6365938E-1,-5.1475447E-2,3.4423304E-1,-3.65166E-1,-1.488242E-1,-6.623626E-2,2.4464524E-1,-2.0224686E-1,-5.225568E-2,-7.6324634E-2,2.3010051E-1,-4.1255292E-1,-1.2333953E-1,6.035757E-2,2.3983395E-1,-5.6669873E-1,-2.0376995E-1,-3.4722206E-1,-1.726978E-1,1.8103981E-1,-5.6901914E-1,4.6742782E-1,-9.1804124E-2,5.2942824E-1,1.3527094E-1,2.1765672E-1,-4.9550897E-1,4.847958E-1,9.6859664E-1,8.272175E-1,2.2729341E-2],"categories":[],"categories_nodes":[],"categories_segments":[],"categories_sizes":[],"default_left":[0,0,0,0,0,0,0,0,0,0,0,0,0,0,0,0,0,0,0,0,0,0,0,0,0,0,0,0,0,0,0,0,0,0,0,0,0,0,0,0,0,0,0,0,0,0,0,0,0,0,0,0,0,0,0,0,0,0,0,0,0,0,0,0,0,0,0,0,0,0,0,0,0,0,0,0,0,0,0,0,0,0,0,0,0,0,0,0,0],"id":24,"left_children":[1,3,5,7,9,11,13,15,17,19,21,23,25,27,-1,29,31,33,35,37,39,41,43,-1,45,47,49,-1,51,53,55,-1,57,59,61,63,65,67,69,71,-1,-1,73,-1,75,77,79,81,83,-1,85,-1,87,-1,-1,-1,-1,-1,-1,-1,-1,-1,-1,-1,-1,-1,-1,-1,-1,-1,-1,-1,-1,-1,-1,-1,-1,-1,-1,-1,-1,-1,-1,-1,-1,-1,-1,-1,-1],"loss_changes":[1.1025484E4,1.7276147E2,1.4955566E2,1.09715454E2,1.1999652E2,2.5774414E1,4.6322754E1,7.54698E1,7.212286E1,9.5254395E1,4.0710205E1,4.8819217E2,3.4915625E2,1.010791E1,0E0,6.80358E1,4.9296265E1,1.590214E2,1.2929121E2,7.596619E1,5.6981483E1,1.2925201E1,4.275673E1,0E0,1.554824E2,3.164163E2,1.2742529E2,0E0,3.6956213E2,2.3545532E0,4.97311E1,0E0,1.13158E1,1.2365521E2,1.4597382E1,9.4412895E1,9.088947E0,9.45551E1,1.08464874E2,1.3423538E0,0E0,0E0,2.3442383E0,0E0,5.631714E0,2.0496497E2,1.0628373E2,5.2990967E1,1.9314851E2,0E0,2.2080566E2,0E0,3.4005676E2,0E0,0E0,0E0,0E0,0E0,0E0,0E0,0E0,0E0,0E0,0E0,0E0,0E0,0E0,0E0,0E0,0E0,0E0,0E0,0E0,0E0,0E0,0E0,0E0,0E0,0E0,0E0,0E0,0E0,0E0,0E0,0E0,0E0,0E0,0E0,0E0],"parents":[2147483647,0,0,1,1,2,2,3,3,4,4,5,5,6,6,7,7,8,8,9,9,10,10,11,11,12,12,13,13,15,15,16,16,17,17,18,18,19,19,20,20,21,21,22,22,24,24,25,25,26,26,28,28,29,29,30,30,32,32,33,33,34,34,35,35,36,36,37,37,38,38,39,39,42,42,44,44,45,45,46,46,47,47,48,48,50,50,52,52],"right_children":[2,4,6,8,10,12,14,16,18,20,22,24,26,28,-1,30,32,34,36,38,40,42,44,-1,46,48,50,-1,52,54,56,-1,58,60,62,64,66,68,70,72,-1,-1,74,-1,76,78,80,82,84,-1,86,-1,88,-1,-1,-1,-1,-1,-1,-1,-1,-1,-1,-1,-1,-1,-1,-1,-1,-1,-1,-1,-1,-1,-1,-1,-1,-1,-1,-1,-1,-1,-1,-1,-1,-1,-1,-1,-1],"split_conditions":[6.2573E4,6E0,9.9769E4,2.8708E4,3.7333E4,1E0,5E0,2.8317E4,4.2972E4,3.6948E4,3.7774E4,8.0641E4,8.0641E4,1E0,3.356069E-1,2.7007E4,2.8522E4,4.2289E4,4.6704E4,3.325E4,3.728E4,3.745E4,3.7865E4,8.3760226E-1,9.377E4,6E0,2E0,1.0921004E0,2E0,3E0,2E0,-4.7772938E-1,3E0,4.2039E4,1E0,2E0,4E0,3.2893E4,3.3554E4,3.7035E4,-8.6246364E-2,-9.3392275E-2,3.7597E4,7.434864E-2,3.8166E4,8.1375E4,9.7448E4,5E0,7.5477E4,1.108136E0,6E0,1.0941061E0,1.00568E5,-2.6917514E-1,-1.2509869E-1,1.064534E-1,-1.071529E-1,2.3091603E-2,-1.6365938E-1,-5.1475447E-2,3.4423304E-1,-3.65166E-1,-1.488242E-1,-6.623626E-2,2.4464524E-1,-2.0224686E-1,-5.225568E-2,-7.6324634E-2,2.3010051E-1,-4.1255292E-1,-1.2333953E-1,6.035757E-2,2.3983395E-1,-5.6669873E-1,-2.0376995E-1,-3.4722206E-1,-1.726978E-1,1.8103981E-1,-5.6901914E-1,4.6742782E-1,-9.1804124E-2,5.2942824E-1,1.3527094E-1,2.1765672E-1,-4.9550897E-1,4.847958E-1,9.6859664E-1,8.272175E-1,2.2729341E-2],"split_indices":[0,2,0,0,0,2,2,0,0,0,0,0,0,3,0,0,0,0,0,0,0,0,0,0,0,2,2,0,2,2,2,0,2,0,2,2,2,0,0,0,0,0,0,0,0,0,0,2,0,0,2,0,0,0,0,0,0,0,0,0,0,0,0,0,0,0,0,0,0,0,0,0,0,0,0,0,0,0,0,0,0,0,0,0,0,0,0,0,0],"split_type":[0,0,0,0,0,0,0,0,0,0,0,0,0,0,0,0,0,0,0,0,0,0,0,0,0,0,0,0,0,0,0,0,0,0,0,0,0,0,0,0,0,0,0,0,0,0,0,0,0,0,0,0,0,0,0,0,0,0,0,0,0,0,0,0,0,0,0,0,0,0,0,0,0,0,0,0,0,0,0,0,0,0,0,0,0,0,0,0,0],"sum_hessian":[5.66E2,5.12E2,5.4E1,4.37E2,7.5E1,3.9E1,1.5E1,2E1,4.17E2,5.5E1,2E1,6E0,3.3E1,1.3E1,2E0,1.6E1,4E0,4.02E2,1.5E1,5E1,5E0,4E0,1.6E1,2E0,4E0,9E0,2.4E1,6E0,7E0,7E0,9E0,2E0,2E0,3.95E2,7E0,1E1,5E0,1.7E1,3.3E1,3E0,2E0,1E0,3E0,1E0,1.5E1,2E0,2E0,7E0,2E0,3E0,2.1E1,2E0,5E0,3E0,4E0,4E0,5E0,1E0,1E0,3.94E2,1E0,3E0,4E0,3E0,7E0,2E0,3E0,1.5E1,2E0,3E0,3E1,1E0,2E0,1E0,2E0,1E0,1.4E1,1E0,1E0,1E0,1E0,5E0,2E0,1E0,1E0,1.7E1,4E0,1E0,4E0],"tree_param":{"num_deleted":"0","num_feature":"6","num_nodes":"89","size_leaf_vector":"1"}},{"base_weights":[8.2339585E-2,-1.3013865E0,1.2987233E1,-8.1120974E-1,-1.9505254E0,1.1264738E1,1.6481768E1,-2.4287755E0,-4.8571408E-1,-1.7108396E0,-4.0299315E0,1.18602495E1,6.763004E0,8.7229675E-1,3.2441992E-1,-1.305679E0,-3.8640628E0,5.686908E-1,-5.8054405E-1,-1.2291939E0,-2.580884E0,-5.710007E0,-1.8307648E0,4.9144974E0,1.2140781E1,2.109029E0,8.671713E-1,-3.0079281E0,4.836156E-1,-5.7390194E0,-2.26878E0,1.0284276E0,-8.9014757E-1,-2.2922168E0,-1.9542313E-1,-1.8430003E0,-5.1635904E0,-3.5243186E-1,-1.270587E0,2.286209E0,-2.999671E0,6.366539E-2,3.0492193E-1,1.002127E1,7.6380485E-1,-9.130287E-1,2.7177152E-1,-8.293899E-2,-3.1516957E-1,3.3470613E-1,-2.1907179E-2,-1.3148591E-1,-4.4841084E-1,-5.6323685E-2,-2.2786756E-1,3.167775E-2,4.107115E-1,-7.430788E-2,2.1279974E-2,-8.155707E-2,-4.883338E-1,5.5531073E-2,-5.2536745E-2,-1.1222553E-1,9.385023E-2,-3.443162E-1,-1.6249768E-1,2.3682737E-1,-2.4259071E-1,3.0513192E-2,1.409525E-1,-8.277562E-2,-2.1329956E-1,2.6184613E-1,5.9524184E-1,-1.2691918E-1,9.907589E-2],"categories":[],"categories_nodes":[],"categories_segments":[],"categories_sizes":[],"default_left":[0,0,0,0,0,0,0,0,0,0,0,0,0,0,0,0,0,0,0,0,0,0,0,0,0,0,0,0,0,0,0,0,0,0,0,0,0,0,0,0,0,0,0,0,0,0,0,0,0,0,0,0,0,0,0,0,0,0,0,0,0,0,0,0,0,0,0,0,0,0,0,0,0,0,0,0,0],"id":25,"left_children":[1,3,5,7,9,11,13,15,17,19,21,23,25,-1,-1,27,29,-1,31,33,35,37,39,41,43,45,-1,47,49,51,53,55,57,59,61,63,65,-1,67,69,71,-1,-1,73,-1,75,-1,-1,-1,-1,-1,-1,-1,-1,-1,-1,-1,-1,-1,-1,-1,-1,-1,-1,-1,-1,-1,-1,-1,-1,-1,-1,-1,-1,-1,-1,-1],"loss_changes":[1.0141729E4,1.6165057E2,1.4539844E2,1.5361446E2,1.0275427E2,2.702295E1,4.096875E1,7.39411E1,2.832642E2,8.021918E1,7.083115E1,6.583496E0,3.081093E2,0E0,0E0,8.978362E1,4.9792236E1,0E0,1.22960556E2,1.4241188E2,1.2388507E2,6.2356995E1,5.9793793E1,5.1676636E0,5.956494E1,6.527815E1,0E0,5.6235077E1,8.880186E1,6.678104E1,2.885151E1,1.08294876E2,1.6217737E2,3.0030475E2,7.6011E1,8.785573E1,2.7070038E1,0E0,1.090325E2,9.5867157E-1,8.256813E0,0E0,0E0,1.3591138E2,0E0,2.384851E1,0E0,0E0,0E0,0E0,0E0,0E0,0E0,0E0,0E0,0E0,0E0,0E0,0E0,0E0,0E0,0E0,0E0,0E0,0E0,0E0,0E0,0E0,0E0,0E0,0E0,0E0,0E0,0E0,0E0,0E0,0E0],"parents":[2147483647,0,0,1,1,2,2,3,3,4,4,5,5,6,6,7,7,8,8,9,9,10,10,11,11,12,12,15,15,16,16,18,18,19,19,20,20,21,21,22,22,23,23,24,24,25,25,27,27,28,28,29,29,30,30,31,31,32,32,33,33,34,34,35,35,36,36,38,38,39,39,40,40,43,43,45,45],"right_children":[2,4,6,8,10,12,14,16,18,20,22,24,26,-1,-1,28,30,-1,32,34,36,38,40,42,44,46,-1,48,50,52,54,56,58,60,62,64,66,-1,68,70,72,-1,-1,74,-1,76,-1,-1,-1,-1,-1,-1,-1,-1,-1,-1,-1,-1,-1,-1,-1,-1,-1,-1,-1,-1,-1,-1,-1,-1,-1,-1,-1,-1,-1,-1,-1],"split_conditions":[6.2573E4,4E0,9.9769E4,3.1949E4,4.0742E4,9.7448E4,5E0,3.0648E4,3.2008E4,6E0,4.2289E4,7.2887E4,6E0,8.7229675E-1,3.2441992E-1,2.8708E4,3.111E4,5.686908E-1,3.3732E4,3.4661E4,3.7333E4,6E0,5E0,3E0,1E0,9.8936E4,8.671713E-1,2.8317E4,2.9233E4,3.0966E4,3.1821E4,3.3687E4,3.8498E4,3.4391E4,3.71E4,3.6948E4,3.8166E4,-3.5243186E-1,4.1255E4,4.5262E4,4.4529E4,6.366539E-2,3.0492193E-1,8.0641E4,7.6380485E-1,4E0,2.7177152E-1,-8.293899E-2,-3.1516957E-1,3.3470613E-1,-2.1907179E-2,-1.3148591E-1,-4.4841084E-1,-5.6323685E-2,-2.2786756E-1,3.167775E-2,4.107115E-1,-7.430788E-2,2.1279974E-2,-8.155707E-2,-4.883338E-1,5.5531073E-2,-5.2536745E-2,-1.1222553E-1,9.385023E-2,-3.443162E-1,-1.6249768E-1,2.3682737E-1,-2.4259071E-1,3.0513192E-2,1.409525E-1,-8.277562E-2,-2.1329956E-1,2.6184613E-1,5.9524184E-1,-1.2691918E-1,9.907589E-2],"split_indices":[0,2,0,0,0,0,2,0,0,2,0,0,2,0,0,0,0,0,0,0,0,2,2,2,3,0,0,0,0,0,0,0,0,0,0,0,0,0,0,0,0,0,0,0,0,2,0,0,0,0,0,0,0,0,0,0,0,0,0,0,0,0,0,0,0,0,0,0,0,0,0,0,0,0,0,0,0],"split_type":[0,0,0,0,0,0,0,0,0,0,0,0,0,0,0,0,0,0,0,0,0,0,0,0,0,0,0,0,0,0,0,0,0,0,0,0,0,0,0,0,0,0,0,0,0,0,0,0,0,0,0,0,0,0,0,0,0,0,0,0,0,0,0,0,0,0,0,0,0,0,0,0,0,0,0,0,0],"sum_hessian":[5.66E2,5.12E2,5.4E1,2.93E2,2.19E2,3.9E1,1.5E1,4.8E1,2.45E2,1.98E2,2.1E1,3.3E1,6E0,1.3E1,2E0,2.8E1,2E1,1E0,2.44E2,1.29E2,6.9E1,1.1E1,1E1,2E0,3.1E1,5E0,1E0,1.4E1,1.4E1,8E0,1.2E1,3.9E1,2.05E2,6.3E1,6.6E1,5.5E1,1.4E1,8E0,3E0,2E0,8E0,1E0,1E0,2.1E1,1E1,3E0,2E0,1.1E1,3E0,1E0,1.3E1,5E0,3E0,9E0,3E0,3.8E1,1E0,1.41E2,6.4E1,5.9E1,4E0,2.6E1,4E1,5E1,5E0,6E0,8E0,1E0,2E0,1E0,1E0,5E0,3E0,7E0,1.4E1,2E0,1E0],"tree_param":{"num_deleted":"0","num_feature":"6","num_nodes":"77","size_leaf_vector":"1"}},{"base_weights":[8.303907E-2,-1.2393703E0,1.2416002E1,-7.7062005E-1,-1.8601577E0,1.0779015E1,1.5732472E1,-2.3267121E0,-4.5753416E-1,-1.6307855E0,-3.850381E0,6.46372E0,1.1350428E1,9.563489E-1,1.0967082E1,-2.931332E0,2.8459376E-2,5.544735E-1,-5.4992795E-1,-3.6085668E0,-1.4262204E0,-5.4543557E0,-1.7505552E0,7.9258806E-1,-4.6184844E-1,5.519025E0,1.32289715E1,1.0299824E0,5.2721124E0,-1.9091707E0,-4.6202507E0,2.3034241E0,-2.2512486E0,1.6890584E0,-7.564559E-1,-1.0548377E0,-8.540218E0,4.4027176E0,-1.8635732E0,-3.3676824E-1,-1.208498E0,2.2290535E0,-2.8825853E0,-5.440562E0,4.6708145E0,8.318773E0,-3.7866466E0,1.0421523E0,1.12432785E1,7.825945E-1,9.3350095E-1,-2.0013271E-1,2.4610462E-2,-4.3159547E-1,-1.3707215E-1,-1.77705E-1,2.0928745E-1,-2.687833E-1,3.2743838E-2,-8.1780836E-2,2.4300914E-1,-4.2490587E-1,-2.8894115E-2,-1.2155946E-1,8.167812E-2,-6.120293E-1,-1.8149439E-1,3.4731528E-1,-5.2814182E-2,-2.1788263E-1,-6.7054756E-2,2.3090668E-1,-2.3450433E-1,2.9750347E-2,1.3742867E-1,-7.932666E-2,-2.0530085E-1,1.6163273E-1,-5.696749E-1,4.3664703E-1,-8.633595E-2,4.93927E-1,1.2131577E-1,2.0566903E-1,-4.896675E-1,4.371024E-1,8.9995253E-1,1.2114668E-1,-6.817882E-2],"categories":[],"categories_nodes":[],"categories_segments":[],"categories_sizes":[],"default_left":[0,0,0,0,0,0,0,0,0,0,0,0,0,0,0,0,0,0,0,0,0,0,0,0,0,0,0,0,0,0,0,0,0,0,0,0,0,0,0,0,0,0,0,0,0,0,0,0,0,0,0,0,0,0,0,0,0,0,0,0,0,0,0,0,